5119 50
1862 -0.016766 0.226503 0.206787 -0.181978 -0.596907 -0.537206 -0.178745 -0.729236 0.161707 -0.163734 0.286841 -0.517140 -0.606364 -0.459360 -0.128608 0.353257 0.314271 -0.539110 -0.646915 0.103790 0.117423 0.149787 0.704795 0.237092 -0.158963 -0.286007 -0.773237 0.274426 -0.284388 -0.947255 0.151788 0.210139 -0.044200 -0.491812 -0.665883 -0.377634 -0.271340 -0.079737 -0.400674 0.517206 0.008301 0.305562 0.330227 0.036199 0.550731 -0.164687 -0.618337 -0.061375 0.354198 -0.317087
1961 0.015655 -0.008947 -0.088939 -0.222598 -0.437440 -0.139156 -0.030814 -0.802854 -0.065760 -0.467876 0.367367 -0.365589 -0.668945 -0.793022 -0.000683 -0.225880 0.171986 -0.300063 -0.505050 0.471755 0.097640 -0.123315 0.331395 -0.104733 -0.043009 -0.069752 -0.831908 -0.012156 0.314818 -1.114191 -0.005926 -0.028709 -0.469974 -0.741036 -0.451879 -0.399179 -0.632528 0.348942 0.292361 -0.084463 -0.302687 0.324601 0.075679 0.107204 0.466789 0.110323 -0.622044 -0.636700 0.211862 -0.528973
4368 -0.091731 0.109378 0.177940 -0.293949 -0.141783 -0.133901 -0.145479 -0.493163 0.499968 -0.166888 0.558285 0.158168 -0.497600 -0.516002 0.205809 0.179489 0.168199 -0.145067 -0.602740 0.101164 0.113061 0.273506 0.429567 -0.336208 0.112969 -0.756281 -0.919413 0.110682 0.212432 -0.882327 0.472894 0.184013 0.059651 -0.831806 -0.810857 -0.284080 -0.239036 -0.275441 -0.203666 0.395064 -0.259439 0.180074 0.312524 -0.088045 0.771978 0.102174 -0.562551 -0.535475 0.208174 -0.183981
2497 0.192753 0.189984 0.206473 -0.226693 -0.046112 -0.688305 -0.219748 -0.592143 0.212637 -0.168284 0.662860 -0.828707 -0.200592 -0.705252 -0.131614 -0.147629 0.482548 -0.654500 -0.835313 0.221518 0.087663 -0.100163 0.360577 -0.132613 -0.054086 -0.083294 -0.711349 -0.159172 0.171223 -0.658539 0.166643 -0.317890 -0.236648 -0.553499 -0.659773 -0.135696 -0.227633 -0.026259 -0.529505 0.569094 -0.233511 0.210284 -0.088071 -0.088211 0.543447 -0.432955 -0.820716 -0.061623 0.192051 -0.331734
512 0.207814 0.218402 0.145766 -0.013285 -0.185122 -0.320894 -0.238106 -0.147527 -0.055744 0.131790 0.446029 -0.355550 -0.680918 -0.551267 -0.182919 0.578403 -0.161906 -0.708292 -0.136794 0.133975 -0.125300 -0.014666 0.467341 0.055012 -0.018758 -0.573095 -0.981282 -0.201049 -0.022796 -0.985241 0.143991 0.076135 0.111263 -0.467656 -0.763144 -0.198678 -0.381381 -0.105985 0.213767 0.621701 -0.225996 0.093266 0.011797 0.193142 0.473494 -0.312759 -0.877780 -0.211439 0.481017 -0.098454
4889 0.206448 0.094985 0.124783 -0.227708 -0.271058 -0.111928 -0.235681 -0.399528 0.131848 -0.372583 0.564445 -0.344814 -0.685231 -0.529031 0.033729 -0.126892 0.015881 -0.035396 -0.511104 0.165321 0.162624 -0.084094 0.765963 -0.239892 0.028992 -0.523665 -0.923322 0.030871 -0.118149 -1.061826 0.336417 -0.352055 -0.242153 -0.809860 -0.762298 -0.022591 -0.377583 -0.318884 -0.346721 0.460707 -0.297249 -0.165686 0.459766 0.164513 0.828305 0.140548 -0.356993 -0.393094 0.107234 -0.380102
2034 0.075903 0.034458 0.296765 -0.122408 0.070124 -0.097789 -0.506615 -0.514915 0.369001 -0.199279 0.293792 -0.387757 -0.692247 -0.472757 -0.023728 -0.303892 0.082111 -0.260669 -0.581293 0.325243 0.014668 -0.336344 0.659941 -0.335281 0.045277 -0.369888 -0.906407 -0.072727 0.028224 -1.085473 0.137691 0.073491 -0.323588 -0.857344 -0.847028 0.075531 -0.355586 -0.295523 -0.148423 0.404781 -0.316488 -0.027009 0.395411 -0.157286 0.999960 -0.078062 -0.304123 -0.464517 0.235969 -0.171669
1231 -0.078385 -0.104358 0.120162 0.041113 0.238281 -0.228451 0.161135 -0.825251 -0.229978 0.032967 0.384055 -0.632475 -0.640585 -0.284086 -0.453378 -0.340733 0.241722 -0.179198 -0.587109 0.395699 0.168708 0.041807 0.708725 0.009853 0.309149 -0.290764 -0.866779 0.069834 0.302430 -1.085489 0.165714 -0.141895 -0.311333 -0.523976 -0.434966 -0.524058 -0.459205 0.028606 -0.187587 0.436741 -0.391444 0.053094 0.135632 0.130311 0.468439 -0.054503 -0.905689 -0.135029 0.282152 -0.338277
3784 0.460382 -0.048393 0.198862 0.034463 -0.134330 -0.070265 -0.199834 -0.599037 0.193508 -0.408826 0.098806 -0.444648 -0.858664 -0.368765 0.044632 -0.112762 0.051445 -0.246029 -0.433534 0.273920 0.093295 -0.026565 0.626570 -0.251178 0.019160 -0.250955 -0.811070 -0.006540 -0.252712 -0.936148 0.234553 0.033419 -0.120551 -0.882734 -0.725446 0.149736 -0.541420 0.058968 -0.171430 0.496620 0.019019 0.119476 0.591142 0.083173 0.366199 -0.416529 -0.727019 -0.535034 0.542126 -0.662394
2621 0.582540 -0.006813 -0.374664 -0.013829 -0.028456 -0.255097 -0.544846 -0.563967 -0.208867 -0.259857 -0.029527 -0.175049 -0.844067 0.379445 0.100321 -0.151072 0.394833 -0.207451 -0.472832 0.507374 0.114648 -0.026524 -0.065449 -0.319768 -0.158451 -0.527259 -1.146069 0.001886 -0.123796 -0.827424 0.246677 -0.025675 -0.484830 -0.536545 -0.615784 -0.260019 -0.536468 0.205391 -0.503531 0.225889 -0.191628 -0.153424 -0.062251 -0.201536 0.405573 -0.115629 -0.823729 -0.573857 0.467084 -0.062432
1114 -0.048727 0.310346 -0.093826 -0.085867 -0.382448 -0.220483 -0.092883 -0.608174 0.109177 -0.335255 0.254748 -0.373551 -0.661966 -0.392738 -0.292185 0.180828 0.237535 -0.624267 -0.592869 0.099199 0.317631 0.022111 0.545943 0.247412 -0.119497 -0.257256 -0.998009 0.289796 -0.155084 -0.861704 0.319335 0.158484 0.144368 -0.636918 -0.854203 -0.331589 -0.328056 -0.126901 -0.394880 0.520411 -0.001049 -0.064647 0.357081 0.037656 0.662222 -0.125383 -0.321239 -0.125931 0.290548 -0.304069
4681 0.492558 0.213322 0.035316 -0.158111 -0.334064 0.291334 -0.168898 -0.740676 0.318721 -0.021609 0.908043 -0.267939 -0.193634 -0.585179 0.260070 -0.193776 0.261466 -0.593465 -0.311693 0.478715 -0.214859 -0.664321 1.098019 0.254171 0.546573 -0.032334 -0.380246 0.283055 -0.030909 -0.034601 0.407933 -0.172045 -1.050544 0.076857 0.050885 0.092254 -0.739755 0.982480 0.087283 -0.433914 0.465501 0.421843 -0.818103 -0.307543 -0.229023 -0.019065 -0.519008 -0.000967 -0.063825 0.135329
3112 0.242096 -0.146927 0.009123 -0.006559 -0.184339 -0.410525 -0.335853 -0.381911 0.004313 -0.237338 0.306330 -0.557983 -0.741169 -0.294411 -0.350694 0.058641 0.528990 -0.389530 -0.757325 0.271461 0.155011 0.142887 0.728295 0.007408 0.061953 -0.194189 -0.944596 0.061214 0.191011 -0.878444 0.190270 -0.005602 0.075079 -0.655591 -0.784828 -0.245392 -0.270271 -0.088819 -0.024169 0.491883 -0.160110 0.083969 0.320319 -0.075458 0.719312 -0.286727 -0.370378 -0.458665 -0.001010 -0.576500
4849 0.095581 0.058074 0.277102 0.226334 -0.372982 -0.637337 -0.478174 -0.781942 0.187297 0.117180 0.370186 -0.762471 -0.736305 -0.626429 0.074995 0.054879 0.366012 -0.284858 -0.361602 -0.085188 0.057631 -0.012329 0.599562 0.069545 -0.142656 -0.409403 -0.893483 0.007316 -0.173113 -1.083235 0.115307 0.081549 0.032531 -0.594463 -0.483197 -0.315681 -0.148296 0.374387 -0.255818 0.524446 -0.138741 0.304838 0.230286 0.204130 0.677991 -0.148325 -0.596895 -0.328413 0.216679 -0.084961
4665 0.810445 0.271285 0.134101 -0.297037 -0.305161 -0.000823 -0.794461 0.458967 0.063258 0.290841 0.890658 -0.072895 -0.034505 -0.510231 -0.091362 0.559587 -0.336704 -0.912290 0.202769 0.223670 -0.292108 -0.340946 0.062414 0.029145 0.512701 -0.700788 -0.754966 -0.214335 -0.228409 -0.609455 0.077525 0.200113 -0.045348 0.472842 -0.149213 -0.408107 -0.606725 0.453960 0.645965 0.385506 -0.085805 -0.380159 0.287732 -0.010560 -0.099481 0.127022 -0.240703 -0.084989 0.613417 0.146151
4470 0.257530 -0.077588 -0.279091 0.249437 -0.294957 -0.644113 -0.317390 -0.252521 0.017328 -0.204354 0.275687 -0.469370 -0.734626 -0.319455 0.164659 0.030429 0.372107 -0.332983 -0.825796 0.066352 0.006647 0.023095 0.684961 -0.101154 0.335396 -0.348051 -0.804597 0.138632 0.225135 -0.854651 0.173340 -0.022767 -0.099934 -0.945969 -0.738242 -0.047851 -0.123742 -0.013416 -0.044076 0.547786 -0.317720 -0.122096 0.281562 0.186548 0.708145 -0.204391 -0.530837 -0.264113 -0.030359 -0.429518
1680 0.164189 0.475984 0.136841 0.042932 0.151843 -0.318025 -0.434085 -0.167290 -0.012405 -0.518289 0.440893 -0.479934 -0.674989 -0.238619 0.124599 -0.472836 0.394022 -0.464878 -0.416424 0.298752 0.150124 -0.044353 0.700416 -0.146526 -0.010534 -0.870861 -1.132103 -0.044612 0.174400 -0.934505 -0.151474 -0.103323 -0.055667 -0.488592 -0.671780 -0.183633 -0.191128 0.029356 -0.130100 0.234921 -0.064056 0.268151 0.548115 0.224005 0.697649 -0.296432 -0.444475 -0.249049 0.211820 -0.689104
304 0.211201 0.188921 0.118969 0.028143 -0.345287 -0.232517 -0.149458 -0.521886 0.240541 -0.035592 0.611807 -0.432795 -0.901734 -0.642988 -0.019977 0.006394 0.537269 -0.566117 -0.862031 0.263973 0.333738 -0.018931 0.641408 0.139790 0.117466 -0.425282 -0.750009 -0.217379 -0.181420 -0.894284 -0.040918 0.074132 -0.103520 -0.546065 -0.413177 -0.103138 -0.307342 -0.067024 -0.378274 0.485633 -0.183941 0.160932 0.297431 -0.034720 0.599020 -0.173229 -0.677710 -0.556165 0.342254 -0.348764
4736 -0.265941 -0.034946 0.110913 -0.317470 -0.556278 -0.212882 0.022193 -1.103241 -0.892142 0.132935 0.200956 -0.593918 -1.173871 -0.329522 -0.299557 0.207136 -0.045052 0.201379 -0.012140 0.618318 0.022564 -0.268926 0.357821 0.140310 0.162567 -0.394754 0.010782 -0.722252 -0.319344 0.402169 0.876902 0.227104 -0.505731 -0.049184 -0.922131 0.346419 0.062800 0.780823 0.016287 -0.518883 0.346970 -0.360323 0.878026 0.176420 0.475789 0.195717 0.080763 0.547716 0.589982 -0.585068
3822 0.192962 0.009304 0.037780 -0.074753 -0.362905 -0.121843 0.018218 -0.708682 0.235947 -0.230919 0.373392 -0.432465 -0.525515 -0.264235 -0.142292 -0.151514 0.231799 -0.218461 -0.626702 0.339878 -0.035712 -0.266654 0.649145 0.269874 0.108497 -0.479298 -1.009190 0.081069 0.336537 -1.011465 0.088187 -0.123371 -0.122934 -0.583886 -0.322282 0.084931 -0.734380 0.204766 0.090947 -0.011227 -0.388889 0.354176 0.108850 0.169279 0.858696 -0.016524 -0.644629 -0.497951 0.319141 -0.129458
3326 0.027175 0.132412 0.148738 0.193706 -0.268662 -0.497238 -0.371337 -0.542052 0.089192 -0.207017 0.420657 -0.551584 -0.613134 -0.462518 -0.055108 0.045902 0.367965 -0.250239 -0.542579 0.204640 0.106807 0.177006 0.529919 -0.025683 0.045873 -0.266807 -0.969718 -0.051025 -0.112338 -1.110101 0.062676 0.048218 -0.086910 -0.469865 -0.801681 -0.081604 -0.155896 0.163529 -0.264053 0.276025 -0.247609 0.183313 0.154159 0.018326 0.716246 -0.130381 -0.708109 -0.325078 0.546158 -0.340256
2742 0.378523 0.156568 -0.016587 0.000918 -0.322343 -0.299140 -0.139986 -0.569491 0.070039 -0.170299 0.618591 -0.271206 -0.887390 -0.420730 -0.218169 -0.467745 0.268101 -0.028335 -0.385311 0.160542 0.238844 0.359954 0.262005 0.019523 0.134512 -0.466621 -0.813999 -0.058076 0.166114 -0.771504 -0.095268 -0.186903 -0.385914 -0.606107 -0.954439 -0.045877 -0.184613 0.120504 0.147798 0.363893 0.123334 0.485627 0.014676 0.157554 0.693480 -0.130398 -0.830283 -0.180518 0.182084 -0.198797
3467 0.144252 -0.009785 -0.109349 -0.196511 -0.131297 -0.460261 -0.229599 -0.437046 0.280408 -0.171853 0.472313 -0.613075 -0.518112 -0.362508 -0.276016 0.110807 0.353224 -0.332994 -0.615745 0.281754 0.170808 0.371398 0.606907 -0.125813 0.031012 -0.372727 -0.955038 -0.138220 -0.110404 -0.864404 0.133729 -0.001692 -0.029033 -0.701159 -0.780276 -0.016868 -0.531469 0.109050 0.065881 0.524039 -0.283881 0.280828 0.390106 0.052991 0.623978 -0.160024 -0.380499 -0.465754 0.087553 -0.494421
3634 0.198003 -0.161315 0.166003 0.404509 -0.240036 -0.098437 0.101585 -0.363475 -0.182799 -0.669962 0.757333 -0.676280 -0.589409 -0.427693 -0.223770 -0.247083 -0.030683 -0.358872 -0.379175 0.366968 0.187113 0.260530 0.400094 -0.212915 0.126543 -0.308788 -0.944763 -0.104180 -0.179597 -0.570105 0.209771 0.123258 0.194322 -0.265980 -0.696733 -0.062307 -0.455292 0.429076 -0.457084 -0.000789 -0.391511 -0.120072 0.254855 0.020114 1.131217 -0.186793 -0.564915 -0.680210 0.499960 -0.445175
2572 0.113601 0.077612 -0.200575 -0.109578 0.005149 -0.510102 -0.294868 -0.368958 0.191758 -0.052730 0.434414 -0.694547 -0.495364 -0.204394 -0.345619 -0.018207 0.239179 -0.380356 -0.639225 0.312671 0.092431 0.339317 0.520527 -0.055140 -0.018445 -0.397673 -0.944396 -0.040101 -0.174623 -0.964139 0.093250 -0.136462 -0.026096 -0.734584 -0.721072 -0.096889 -0.410372 0.138853 -0.009025 0.529751 -0.460203 0.310211 0.305838 0.136486 0.809144 -0.162045 -0.491117 -0.591630 0.295486 -0.470340
1369 0.043261 0.129632 0.232826 0.013164 -0.232300 -0.495121 -0.189088 -0.532000 0.170598 -0.207643 0.539154 -0.503447 -0.611474 -0.486862 -0.098291 0.005174 0.324867 -0.462341 -0.501358 0.104997 0.023054 0.065408 0.668170 -0.102389 0.106951 -0.341408 -1.062764 -0.087438 0.026282 -0.947767 0.173408 -0.136808 -0.157943 -0.737286 -0.618487 -0.122697 -0.332713 0.093720 -0.238764 0.460251 -0.278833 0.274757 0.262914 0.095757 0.734538 -0.007550 -0.727927 -0.494780 0.252342 -0.345500
902 0.168834 0.123171 0.087067 0.080456 -0.147867 -0.328686 -0.188993 -0.392111 0.134237 -0.173014 0.490318 -0.626827 -0.651954 -0.379360 -0.164236 -0.051704 0.229082 -0.365951 -0.585196 0.177000 0.222003 0.130277 0.535690 -0.014032 0.103865 -0.335359 -0.961224 0.047146 0.029064 -1.013294 0.077025 -0.096928 -0.126387 -0.686004 -0.785662 -0.135211 -0.242082 0.021645 -0.107506 0.432457 -0.309235 0.191048 0.342333 0.140197 0.701280 -0.281813 -0.665335 -0.575245 0.149114 -0.491106
4401 -0.016039 0.113093 0.084462 0.122786 -0.445268 -0.253647 -0.199562 -0.375008 0.160231 -0.187282 0.559840 -0.370864 -0.563982 -0.224149 -0.206694 -0.010900 0.297439 -0.397546 -0.496408 0.368682 -0.180555 0.064743 0.283597 -0.040714 -0.088894 -0.304432 -0.746182 -0.186115 0.050148 -1.238813 0.250603 -0.062619 -0.208100 -0.695309 -0.814869 -0.091751 -0.436282 0.277830 -0.467404 0.505798 -0.165842 0.391614 0.360451 -0.063333 0.808672 -0.273929 -0.498336 -0.698191 0.228310 -0.292535
239 0.092836 0.130323 0.158478 0.244079 -0.164849 -0.186561 -0.362205 -0.433768 0.106592 -0.119978 0.601448 -0.322152 -0.498792 -0.379054 -0.171284 -0.096413 0.072221 -0.308330 -0.653101 0.296310 0.248932 0.073028 0.485278 -0.093089 0.067606 -0.147159 -1.389775 -0.045263 -0.149026 -0.796750 -0.057615 -0.187079 -0.064739 -0.887803 -0.488275 -0.207152 -0.151539 0.324668 -0.071363 0.343383 -0.348323 0.159892 0.391030 0.106788 0.927119 -0.231796 -0.669769 -0.175964 0.099307 -0.424788
1103 0.821676 0.545414 -0.459749 -0.348168 -0.287800 -0.475493 0.532291 -0.354836 0.669378 -0.041295 0.102168 0.225588 -0.297166 -0.457624 -0.079125 -0.499896 -0.004114 -0.225705 0.057940 -0.157227 0.057788 -0.766177 0.395322 -0.253596 0.939914 -0.311731 0.187496 0.615140 -0.152827 0.260906 0.629416 -0.210752 -0.647944 0.427951 -0.495560 -0.828986 -0.658731 0.799810 0.188344 0.930037 0.857941 -0.241803 0.202816 0.025273 0.203571 0.284423 -0.069578 -0.026617 0.256519 -0.357718
1008 0.177538 -0.153177 -0.158268 -0.077602 -0.267043 0.066598 -0.222688 -0.692111 0.495421 -0.053314 0.364291 0.198869 -0.737696 -0.614428 0.124515 0.381172 0.726992 -0.439925 -0.440779 0.231352 -0.238167 0.156262 0.574810 -0.248434 0.263096 -0.367552 -0.518749 0.070030 0.137944 -0.412864 0.504314 0.352668 0.313051 -0.596532 -1.122258 0.290955 -0.631006 -0.257640 -0.358498 0.564794 -0.023529 0.159654 0.291218 -0.296859 0.488159 -0.381110 -0.277935 0.232068 -0.245689 -0.477564
1023 0.226900 0.272510 -0.093189 0.085039 0.055847 -0.279658 -0.016024 -0.348333 0.247767 -0.210604 0.278195 -0.421953 -0.690851 -0.538109 -0.239691 -0.183315 0.397836 -0.228745 -0.592113 0.076497 0.143780 0.153530 0.498242 0.155289 0.268225 -0.515185 -1.227215 -0.126991 0.036691 -0.938381 0.119018 -0.201550 -0.154268 -0.617015 -0.903767 -0.249806 -0.175170 0.425466 -0.266181 0.347157 -0.267910 0.167963 0.161154 -0.007841 0.677929 -0.294034 -0.512346 -0.437786 0.247398 -0.308707
5054 0.195959 0.056984 0.055421 0.160018 -0.161281 -0.298571 -0.256927 -0.565587 0.243683 -0.218743 0.443750 -0.532038 -0.588771 -0.254345 -0.241341 -0.034091 0.247273 -0.203295 -0.565447 0.280537 0.105219 0.025503 0.472832 0.098233 -0.006595 -0.386574 -1.059653 0.039101 0.013645 -0.995796 0.127316 -0.025852 -0.111746 -0.673543 -0.762600 -0.239409 -0.261755 0.065157 -0.158512 0.389015 -0.251347 0.145853 0.196465 0.103569 0.769169 -0.168277 -0.663939 -0.509457 0.421047 -0.404605
4113 0.036560 0.210073 0.169129 -0.037409 -0.204054 -0.481653 -0.034699 -0.687703 0.253983 -0.323444 0.543245 -0.635445 -0.979480 -0.209964 -0.227525 -0.144511 0.295324 -0.388017 -0.546587 0.226758 -0.278180 0.135253 0.450435 -0.031101 0.128453 -0.484818 -0.927609 -0.053261 0.226619 -0.793330 0.252794 -0.245532 -0.222662 -0.555155 -0.411179 -0.042253 -0.022645 -0.038821 0.113330 0.399624 -0.416468 0.126067 0.273972 -0.070547 0.803234 -0.285858 -0.601192 -0.312833 0.610886 -0.165784
2194 0.130207 0.225401 0.107189 0.062195 -0.216644 -0.317939 -0.187867 -0.522630 0.226666 -0.146951 0.553298 -0.633385 -0.551260 -0.468145 -0.056214 -0.133994 0.355100 -0.410842 -0.658021 0.117460 0.195558 0.191225 0.578803 0.059410 0.103334 -0.306545 -1.015962 -0.033831 0.056394 -0.946524 0.022179 -0.135091 -0.154229 -0.651633 -0.734640 -0.113536 -0.210891 0.075909 -0.114309 0.493990 -0.244723 0.175877 0.243270 0.149437 0.696115 -0.164855 -0.805253 -0.434685 0.352620 -0.460716
2483 0.723967 0.566505 0.153778 -0.030451 -0.363131 -0.757983 -0.404071 -0.252459 0.412045 0.021757 0.298756 -0.337873 -0.300273 0.701988 -0.117614 -0.169562 -0.454096 -0.587320 0.177209 0.832085 0.184841 -0.201741 -0.029953 -0.606055 0.205420 -1.084758 -0.170437 0.880119 0.554129 -0.263989 0.999020 -0.173805 0.552081 0.081145 0.014629 -0.473823 0.049022 1.138144 0.262832 -0.415024 0.615138 -0.617561 0.081692 -0.642152 -0.108200 0.139705 -0.570622 -0.021213 -0.561463 -0.085643
2457 0.227641 0.133260 0.037001 -0.033774 -0.119317 -0.264121 -0.168095 -0.411940 0.221826 -0.179415 0.500394 -0.634394 -0.591794 -0.308097 -0.056926 -0.092680 0.268778 -0.469144 -0.488203 0.278249 0.325911 0.130418 0.542958 0.044464 -0.035609 -0.472324 -1.011519 -0.014861 0.034729 -0.941306 0.153578 -0.033583 -0.182954 -0.789424 -0.673836 -0.090204 -0.274134 0.035952 -0.115617 0.338406 -0.290908 0.119793 0.189729 0.017907 0.770980 -0.262217 -0.688722 -0.521821 0.309694 -0.534256
4949 -0.000952 0.738112 -0.375052 0.351600 -0.931660 -0.457034 -0.413755 -0.453521 0.615040 -0.312486 0.281928 0.378235 0.339072 -0.173628 -0.064791 0.062671 0.236535 -0.770356 0.076421 0.864861 -0.098289 -0.595695 -0.106989 0.196693 0.783283 0.445894 -0.719897 0.843071 0.275765 0.193992 1.150572 -0.382550 -0.843846 0.549718 -0.671367 -0.830573 0.144722 0.203245 0.412644 -0.030238 -0.239700 -0.598550 0.542842 0.608594 -0.253902 -0.582299 0.184353 0.177058 0.264707 0.110515
3021 0.222641 0.704255 0.313481 0.113872 0.292639 0.077638 0.150409 -0.038660 -0.313073 0.593850 0.039790 -0.201763 -0.121750 -0.490114 0.516985 0.258563 0.024673 -0.030513 -0.305908 0.416100 -0.363014 0.231875 0.451789 0.257682 0.484878 -0.147294 -0.016713 0.291905 0.058982 0.359448 1.012910 -0.883898 -1.125416 -0.297931 -0.854071 -0.047043 -0.153563 1.424486 0.321041 -0.151799 0.249474 0.354301 0.269032 -0.304604 0.282058 0.154043 0.148007 0.240657 0.173881 0.247058
1446 0.104505 0.074131 0.127691 -0.042501 -0.292167 -0.268011 -0.248676 -0.566588 0.158140 -0.202067 0.489878 -0.458939 -0.635357 -0.290687 -0.060239 -0.051516 0.302935 -0.318129 -0.587543 0.246189 0.092649 0.152258 0.533789 0.106125 0.100791 -0.395218 -1.006448 0.018091 0.080414 -1.049672 0.133373 -0.108841 -0.201398 -0.672847 -0.733377 -0.106497 -0.252502 0.099339 -0.168004 0.483670 -0.271942 0.100781 0.169393 0.106045 0.777070 -0.168042 -0.617869 -0.486415 0.340757 -0.303305
4793 0.299069 0.132132 0.064961 0.166686 -0.058591 -0.277615 -0.146190 -0.388900 0.075084 -0.298345 0.350546 -0.564690 -0.708959 -0.464694 -0.210658 -0.096695 0.318272 -0.289442 -0.650404 0.257509 0.132182 0.215462 0.542976 -0.117921 0.026927 -0.680389 -0.959337 -0.025657 0.011372 -1.095385 0.059547 -0.130236 -0.210040 -0.508614 -0.645117 -0.062198 -0.284802 0.275166 -0.199102 0.384196 -0.148455 0.195809 0.216424 0.065011 0.810392 -0.210131 -0.584636 -0.496285 0.220458 -0.298582
1081 0.339849 0.271271 0.123117 -0.448016 -0.501522 -0.228044 0.158375 -0.389487 0.377653 0.226959 -0.043428 -0.243062 -0.875589 -0.157446 0.200175 -0.498364 0.020137 -0.160743 -0.281830 0.606873 -0.134365 0.002063 -0.218082 -0.593503 -0.112703 -0.512250 -0.459086 -0.182391 0.368032 -0.495857 1.144986 -0.106468 0.290630 -0.137837 -0.532726 0.052613 -0.348149 0.404469 0.106065 -0.657349 -0.205063 0.689324 0.405492 -0.284488 -0.075630 0.472894 -0.850179 0.428067 0.676080 0.340927
5189 0.158097 0.094862 0.135343 -0.038871 -0.188883 -0.272720 -0.205353 -0.509975 0.127479 -0.116934 0.346689 -0.485740 -0.607930 -0.372832 -0.103939 0.008235 0.340022 -0.353111 -0.570674 0.265334 0.082603 -0.033989 0.446931 0.015997 0.084415 -0.449446 -1.082943 0.002864 0.034221 -1.165807 0.119825 -0.142911 -0.215217 -0.682695 -0.656711 -0.085956 -0.282733 0.158548 -0.186564 0.508321 -0.264783 0.241799 0.255271 0.053138 0.718845 -0.208796 -0.684276 -0.467445 0.255040 -0.377162
4484 0.106953 0.158437 0.066320 0.120253 -0.196562 -0.232258 -0.135517 -0.500462 0.111755 -0.272490 0.468994 -0.506856 -0.615928 -0.302170 -0.119182 -0.095522 0.242158 -0.357936 -0.542163 0.329902 0.088489 0.075810 0.457619 0.031416 0.058804 -0.439552 -1.019076 0.058656 -0.001201 -1.034861 0.107304 -0.083303 -0.239974 -0.719969 -0.757339 -0.087985 -0.242596 0.059155 -0.219678 0.393557 -0.242629 0.188302 0.268728 0.015246 0.806433 -0.204363 -0.708122 -0.512093 0.322623 -0.360036
4809 0.596816 0.832291 0.182612 0.251900 -0.245693 -0.560637 0.025023 -0.938213 0.506101 -0.110967 -0.200168 -0.310658 -0.452996 -0.307808 -0.397728 0.423781 -0.041080 -0.466892 0.469875 -0.088558 0.151904 -0.379267 -0.117788 -0.122508 0.720682 0.035069 -0.066372 0.299210 0.224942 0.235497 0.117620 -0.146326 0.039752 0.361592 0.053831 -1.120698 -0.362875 0.559752 0.318434 -0.031109 0.491960 -0.884848 0.576764 -0.120819 0.415560 0.903040 -0.545676 -0.077597 -0.215291 0.463367
196 0.576266 0.202111 -0.757792 0.600108 -0.987875 -0.039442 -0.704362 0.559937 -0.237682 1.006963 0.913522 -0.635023 -0.440317 0.126566 -0.288351 0.343761 0.687829 -0.840056 -0.328382 1.441435 -0.033471 -0.233019 0.244824 0.466352 0.510614 0.629222 0.717727 0.412988 -0.396804 0.156260 1.169394 0.442398 -0.247989 -0.214401 -1.054018 0.685286 0.347699 0.243939 -0.005457 0.618404 0.328887 -0.212736 1.132995 0.211071 0.919324 0.627187 -0.760680 -0.702702 -0.209849 0.390445
15 0.042190 -0.036531 0.145605 0.185669 -0.173952 -0.144704 -0.244958 -0.517747 0.215811 -0.288975 0.709283 -0.278812 -0.534357 -0.215628 -0.231519 -0.184381 0.228225 -0.462168 -0.702118 0.544809 0.088795 0.023867 0.500311 0.008036 0.091034 -0.349439 -1.156440 0.030479 0.001980 -0.966735 0.143647 0.002706 0.192871 -0.744981 -0.669847 -0.086366 -0.255588 0.179768 -0.489226 0.408208 -0.229534 -0.006099 0.214636 0.180266 0.759851 -0.228271 -0.522937 -0.271038 0.201435 -0.404927
1690 0.143677 0.087060 0.109181 -0.058034 -0.140847 -0.285305 -0.231501 -0.484427 0.091254 -0.292171 0.403624 -0.586304 -0.684865 -0.304915 -0.086094 -0.040298 0.233764 -0.415753 -0.494336 0.375869 0.140211 0.090150 0.621893 0.078457 0.055011 -0.420413 -1.024623 0.005725 0.055739 -0.989822 0.160954 -0.033316 -0.145766 -0.703352 -0.681116 -0.021572 -0.283442 0.130337 -0.252011 0.424914 -0.327364 0.130349 0.281134 0.067595 0.764817 -0.223351 -0.637213 -0.571487 0.345305 -0.366581
3992 0.692567 0.221396 -0.721150 0.038005 -0.228745 -0.493905 0.228843 -0.013133 0.546464 -0.099772 0.543363 -0.262480 -0.539308 -0.537981 -0.235650 -0.095270 0.030323 -0.541616 0.523332 0.474429 -0.185731 -0.404622 0.306497 -0.093864 0.518567 0.143398 0.138202 -0.460897 -0.399883 0.048750 0.680901 -0.227821 -0.222919 -0.579259 -0.857590 -0.321277 0.091560 0.887801 -0.172688 -0.577036 0.692147 0.756950 0.705654 -0.252741 -0.370989 0.106205 0.207439 -0.310407 0.029796 0.829032
3703 1.025491 0.300593 0.044145 -0.145747 0.324302 -0.061101 0.068681 -0.214213 -0.005902 -0.096982 0.740911 0.037280 -1.189610 -0.665221 0.135551 -0.564907 0.269328 0.243428 -0.128129 0.707580 -0.243485 0.364649 0.449672 0.587154 0.612113 -0.373473 -0.018941 0.085309 -0.192297 -0.174844 0.273208 -0.595931 -0.670777 -0.055326 -0.880115 0.234669 0.061515 0.986390 -0.118022 -0.014310 0.295871 0.291827 0.202727 -0.216754 0.072891 0.076127 0.052073 0.245767 -0.389227 -0.213105
1832 0.280330 0.179118 0.108629 0.095164 -0.119551 -0.298379 -0.225665 -0.469440 0.095640 -0.205456 0.466056 -0.578246 -0.627200 -0.290411 -0.089522 -0.085483 0.207663 -0.399117 -0.551898 0.269513 0.136442 0.133248 0.393450 0.038956 0.186656 -0.347898 -1.019015 0.023618 0.082428 -1.043174 0.055173 -0.115272 -0.147069 -0.792614 -0.738816 -0.164157 -0.265734 0.001375 -0.254284 0.379083 -0.236923 0.124735 0.281119 0.101173 0.793585 -0.225702 -0.659587 -0.398288 0.331627 -0.413308
3448 0.145176 0.136397 0.048483 0.123068 -0.134266 -0.291603 -0.167373 -0.601085 0.101856 -0.249857 0.462056 -0.552413 -0.592666 -0.270312 -0.285953 -0.012705 0.286385 -0.380909 -0.545272 0.220863 0.145196 0.112306 0.514987 0.004865 0.064607 -0.386494 -1.102903 0.120278 -0.053807 -1.033896 0.184670 -0.039513 -0.197769 -0.691377 -0.597667 -0.146694 -0.339705 0.108761 -0.200411 0.345146 -0.308311 0.209744 0.245311 0.038418 0.840042 -0.245359 -0.670130 -0.556497 0.318673 -0.426967
3485 0.654680 -0.236756 -0.300099 -0.479361 -0.169792 0.098668 -1.158250 -0.871597 0.542096 0.397332 0.638175 0.509803 0.593398 -0.401803 -1.088525 0.565174 0.230544 -1.131366 -0.293416 0.086727 0.195688 -0.215932 -0.368316 -0.502648 1.187458 -0.688580 -0.408387 0.122812 0.470268 -0.585086 0.403884 0.084551 -0.356149 0.350143 -0.031705 0.439806 0.627212 0.336829 -0.416158 -0.111204 0.331128 -0.215289 1.392485 0.360771 0.212405 0.243941 -0.066658 0.305131 -0.128942 -0.381681
1830 0.225862 0.054206 0.201306 0.065482 -0.269651 -0.408301 -0.097774 -0.445642 0.231295 -0.157317 0.509155 -0.525915 -0.770582 -0.174171 -0.196907 -0.068862 0.239047 -0.288863 -0.459847 0.249301 0.074093 0.150986 0.608290 -0.011356 0.140018 -0.580985 -0.988212 0.070226 -0.047578 -0.967216 0.078347 -0.040586 -0.238563 -0.573410 -0.683398 -0.105059 -0.244175 -0.025973 -0.035105 0.547754 -0.198972 0.156995 0.164005 0.077243 0.837686 -0.145297 -0.795713 -0.644922 0.302055 -0.342623
4156 0.190682 0.104896 -0.039622 0.032489 -0.158545 -0.358422 -0.233373 -0.500525 0.097025 -0.267124 0.505065 -0.642469 -0.659067 -0.357906 -0.181980 0.021093 0.231509 -0.374758 -0.560020 0.168981 0.175474 0.190670 0.451532 0.039685 0.071019 -0.450146 -1.049767 -0.001454 0.049199 -1.125002 0.138774 -0.054638 -0.170586 -0.679916 -0.653437 -0.088402 -0.270289 0.152964 -0.165712 0.449699 -0.200602 0.168192 0.294288 0.121783 0.804346 -0.181235 -0.730571 -0.534332 0.322714 -0.371390
526 0.125634 0.209428 0.122993 0.044623 -0.274013 -0.240508 -0.167225 -0.447337 0.175418 -0.228872 0.527935 -0.540571 -0.680790 -0.342485 -0.232099 -0.076694 0.129952 -0.363424 -0.464771 0.308340 0.071740 0.147090 0.507780 0.017157 0.141617 -0.399417 -1.020693 0.026210 0.120159 -1.014302 0.124485 -0.153377 -0.170908 -0.773912 -0.685825 -0.005550 -0.247301 0.029115 -0.145413 0.456383 -0.314158 0.193126 0.199755 0.123696 0.742925 -0.228956 -0.612430 -0.483822 0.264174 -0.349951
1202 0.103417 0.181555 0.032108 0.092590 -0.163360 -0.298728 -0.227232 -0.590166 0.060497 -0.284134 0.486809 -0.522295 -0.627275 -0.209822 -0.032036 -0.002191 0.376536 -0.382090 -0.620982 0.344378 0.066012 0.063663 0.550647 -0.011394 0.048830 -0.360926 -1.045028 0.133840 -0.047394 -1.018290 0.149004 -0.087591 -0.173622 -0.625453 -0.704217 -0.215903 -0.354351 0.040539 -0.249113 0.354528 -0.380628 0.242989 0.315879 0.030978 0.808661 -0.247519 -0.529621 -0.473141 0.231392 -0.432974
2634 0.592996 -0.382220 -0.673791 -0.527013 0.211612 0.603125 -0.002863 -0.548208 -0.474992 0.204800 0.741318 -0.689687 0.021417 0.122115 0.354390 -0.030475 0.298950 -0.518536 0.166794 0.231383 -0.420389 -0.535379 0.776698 -0.134299 0.716703 -0.305234 -0.760404 0.288221 0.795305 -0.241679 0.409828 -0.364676 -0.497398 -0.622466 -0.237610 -0.620344 -0.433650 0.318544 0.401558 -0.505445 0.142431 0.171742 0.113970 -0.387808 -0.141327 0.559519 -0.011609 0.084159 -0.022556 0.365826
1718 0.240497 0.032283 0.128652 0.013997 -0.121570 -0.274038 -0.154317 -0.524196 0.268043 -0.169031 0.512778 -0.589539 -0.706358 -0.350293 -0.226014 -0.136688 0.345605 -0.328911 -0.568243 0.324757 0.158971 0.077918 0.497713 0.014775 -0.028517 -0.429835 -1.023822 -0.078737 -0.141011 -1.043977 0.188581 -0.013525 -0.309982 -0.676713 -0.564873 0.011516 -0.213656 0.075864 -0.145866 0.458043 -0.178703 0.292882 0.144660 0.155416 0.829428 -0.188177 -0.819930 -0.466790 0.143247 -0.246747
2885 0.842483 -0.575559 -0.208678 -0.333363 -0.614084 -0.146329 -1.004990 -0.750755 0.361437 0.028084 0.265362 -0.084765 0.439391 -0.420900 -0.468411 -0.053472 0.450825 -0.681186 0.102196 0.072050 0.210334 -0.324707 -0.760474 0.231695 1.574639 0.106229 -0.345904 0.562726 0.561325 -0.699033 0.764777 -0.000175 0.271134 0.432234 0.210886 0.271647 0.399070 0.341299 -0.117866 -0.236023 0.696793 -0.367691 0.930674 -0.074225 1.000124 -0.072827 -0.297973 0.240573 0.318692 -0.012939
16 0.109339 0.107744 0.092776 0.192679 -0.177800 -0.255536 -0.206159 -0.550408 0.101517 -0.285189 0.378332 -0.511728 -0.656093 -0.288429 -0.124294 -0.027212 0.168485 -0.420596 -0.432957 0.347359 0.095345 0.000449 0.446211 -0.074285 0.050749 -0.496158 -1.029620 0.095817 -0.115711 -1.040731 0.137762 -0.119877 -0.132098 -0.705504 -0.702626 -0.153171 -0.276437 0.005597 -0.162685 0.448110 -0.357963 0.125680 0.288652 0.104768 0.808078 -0.159074 -0.634034 -0.532190 0.359861 -0.327417
1982 0.636285 1.188071 0.251558 -0.054838 -0.251626 0.137459 -0.221773 -0.536500 -0.862113 0.828245 0.985795 -0.075356 -0.495108 -0.090804 -0.086257 0.633648 -0.686489 -0.593119 0.212961 0.667428 -0.706285 0.097557 -0.242729 0.215323 0.865323 -0.682010 -0.533668 0.121731 -0.192637 0.064173 -0.081712 -0.217396 0.305089 -0.139916 -0.484943 0.067936 -0.269276 0.225758 0.190569 -0.006373 -0.107764 -0.345862 -0.099336 -0.246605 0.353644 -0.357884 -0.880552 -0.462079 0.362620 -0.273308
1503 0.124388 0.155251 0.070053 0.054535 -0.200842 -0.293032 -0.126387 -0.375815 0.170386 -0.207548 0.603923 -0.561700 -0.585086 -0.507801 -0.022751 -0.034962 0.274407 -0.385385 -0.517711 0.235683 0.114057 0.070260 0.568036 -0.039782 0.041175 -0.456834 -0.965586 -0.054170 0.121945 -1.010031 0.081823 -0.130408 -0.144655 -0.722333 -0.604920 -0.083647 -0.296674 0.136604 -0.168866 0.383033 -0.276934 0.231699 0.223674 0.095379 0.912675 -0.223409 -0.573369 -0.509460 0.375758 -0.405259
4530 0.801536 0.231031 -0.548068 -0.831462 -0.395180 -0.474173 -1.098906 -0.297743 -0.290596 0.270451 -0.097882 -0.593342 -0.292536 -0.603185 -0.075693 0.030394 0.402298 -1.388075 0.882472 -0.388456 0.027384 0.126341 -0.128140 0.374736 0.622508 0.033418 0.012623 0.309251 0.122364 -0.519633 0.824777 0.003341 -0.092116 0.268515 -0.010934 -0.086358 -0.059122 0.345157 -0.226552 -0.353213 0.086353 -0.183029 0.427465 0.046739 0.173927 -0.087495 0.136730 -0.206003 0.272430 0.023994
2768 0.285907 0.581137 -0.635682 0.185498 0.597769 -0.660323 -0.608747 -0.406939 0.027109 -0.480052 0.309684 -0.028687 -0.460314 0.153216 -0.685870 0.375364 0.312942 0.003677 -0.723284 0.753512 -0.128191 -0.225610 -0.364930 0.394394 0.556843 -0.447336 -0.653903 0.351619 -0.225610 0.287932 0.497254 0.159699 -0.518327 0.629731 -0.832119 0.189315 0.102877 0.584308 -0.252317 -0.411212 0.178423 0.722717 0.755402 0.138433 -0.071027 0.421540 -0.420910 0.270976 0.038742 0.568915
4840 0.752333 0.292995 0.260565 -0.847563 -0.361582 0.045332 -0.777407 -0.202741 0.374947 0.356905 0.616625 0.042265 0.505090 -0.542516 -0.873971 0.906533 0.043535 -1.215482 0.074027 -0.013823 -0.126520 -0.037374 0.038194 -0.633330 0.097185 -1.040160 -0.224929 0.211316 0.200442 -0.553601 0.473735 -0.303560 -0.112742 0.761766 -0.357777 0.317465 0.348549 0.415670 -0.074769 0.400199 -0.236712 -0.529827 1.393586 0.213959 -0.139267 -0.120684 -0.000703 0.244914 -0.108116 0.112878
3578 -0.189423 0.343148 -0.524612 -0.011788 -0.308365 -0.649993 0.004480 -0.840462 -0.499760 -0.410423 0.697008 0.130502 -0.752722 -0.086047 0.285063 -0.084362 0.057472 -0.587888 0.378639 0.527300 -0.282323 0.371465 0.297675 -1.153505 0.831182 -0.209497 -0.212442 -0.258813 0.658930 0.605621 0.564025 -0.777494 -0.104448 0.198263 0.157688 -0.450794 0.121847 0.389722 0.226659 0.523121 -0.030571 0.143921 0.421102 -0.309086 0.664315 -0.475709 -0.001329 0.196553 0.280065 0.589075
2577 0.285045 0.467062 0.110080 -0.190777 -0.318978 -0.642386 -0.202356 -0.235134 0.284554 0.247415 0.645878 0.185976 0.215587 -0.483920 -0.506031 -0.072995 0.079267 -0.316803 0.411718 1.059938 0.006651 -1.060720 0.106640 -0.534115 0.788047 0.142579 -1.044688 0.449829 0.453947 0.149027 1.104816 -0.551530 -1.148880 0.821043 -0.632194 -1.085481 0.425979 -0.093689 0.292701 0.128604 -0.122146 -0.644983 0.457876 0.134983 -0.204793 -0.216713 0.723577 -0.297215 0.116274 -0.311082
600 0.909901 0.372778 0.159238 -0.016632 -0.203479 -0.608873 -0.929247 0.054676 0.164253 0.425161 0.530981 0.000691 0.405408 -0.861201 -0.511218 0.262343 -0.225016 -0.816135 -0.168773 0.171579 -0.194130 -0.678355 0.025562 -0.041683 0.889461 0.288971 -0.591956 0.656402 0.465654 0.023521 0.108117 0.265647 -0.706060 -0.016135 -0.251086 -0.792336 0.105466 0.623633 0.298158 -0.089579 -0.149001 0.141743 0.007526 0.116195 -0.421526 0.430379 0.260967 -0.056932 0.788887 -0.336723
3770 0.007213 0.034398 -0.594818 -0.450402 -0.246355 -0.039567 0.209816 -0.814644 0.186584 0.331967 -0.217437 -0.995213 -0.877481 -0.067575 -0.085841 -0.722430 -0.239291 -0.479399 -0.532364 0.276684 0.114160 0.117074 0.291836 -0.499406 -0.293816 -0.321105 -0.877961 -0.398111 0.218031 -0.385845 0.837248 -0.163184 -0.298792 0.037900 -0.369175 -0.118256 -0.713933 0.403555 0.424716 -0.167445 -0.570215 0.689348 0.498899 0.009539 0.585415 0.430625 -0.429844 -0.047305 0.476890 0.118675
499 0.645554 0.070393 -0.397926 0.178934 -0.245650 -0.458622 -0.198485 -0.426882 0.368035 0.286622 0.846224 0.375851 0.177457 0.797365 0.343598 0.048767 -0.033696 -0.510611 -0.435924 1.022456 0.078155 -0.374312 1.071263 0.174543 1.333431 0.842819 0.041866 0.485682 -0.155645 0.224565 1.046842 0.314102 -0.133593 -0.465041 -0.962135 0.307069 0.180710 0.336808 0.445184 -0.282855 0.077000 -0.988383 0.766994 0.224718 0.998198 0.082790 -0.005236 0.147714 0.071467 0.851208
4901 1.899895 0.139751 -0.447082 0.073625 -0.251711 -0.191382 -0.393512 -0.681894 0.278926 0.645534 0.215494 0.025816 0.113283 -1.044786 -0.496485 0.178601 0.544057 -0.654094 0.202273 0.018379 -0.621658 0.241310 -0.443877 -0.234522 0.750961 0.233606 -0.155161 0.015451 0.610181 0.512812 0.543375 0.424146 -0.094763 0.388073 -0.808390 0.029846 0.098949 0.477153 -0.072987 -0.276204 0.080023 0.056361 0.104722 0.622017 0.216728 0.164030 -0.337976 -1.134692 0.241113 0.288837
1480 -0.297720 0.366912 0.122911 -0.128389 -0.172822 -0.768220 0.066424 -0.753535 -0.157706 0.423652 0.024931 -0.315430 -0.386097 -0.806983 0.064159 0.022096 -0.089502 -0.470656 -0.398248 0.686926 0.115410 0.166772 0.697348 -0.033761 0.223291 -0.321188 -0.453503 -0.302331 0.390470 -0.435555 -0.063584 0.006873 -0.028054 -0.096397 -0.898261 -0.713330 -0.717817 -0.421895 -0.081167 0.440369 0.095708 0.317090 0.084604 0.119106 0.276429 -0.363202 -1.202377 0.417669 0.324195 0.353534
1610 1.004173 0.929509 0.583199 -0.381831 -0.594342 0.040188 -0.918989 -0.561460 0.446479 0.074337 -0.096597 -0.319184 -0.044698 -0.101912 -0.440196 0.080182 0.280744 -0.316699 0.379842 0.628258 -0.100307 -0.013594 -0.559119 -0.508371 0.119588 -1.056621 0.110234 0.397231 0.316231 -0.438213 0.539301 0.290229 0.239186 0.528409 -0.294826 -0.210524 -0.444414 1.052901 -0.245065 0.564302 0.464076 -0.933075 0.191325 0.006916 0.519580 -0.040275 -0.558222 -0.210228 -0.537550 0.254625
2644 0.207565 0.102066 -0.204758 -0.228244 -0.584206 0.221586 -0.289129 -0.497373 -0.060884 0.096534 0.251661 0.008614 -0.971339 0.092919 0.167799 -0.689426 0.533845 -0.250943 -0.316233 0.420703 0.296907 0.094700 -0.556236 -0.717939 -0.081236 0.018273 -0.362354 -0.425205 -0.007552 -0.564364 0.567277 -0.403472 -0.402521 -0.340967 -1.019909 -0.443398 -0.562140 0.376810 0.077228 0.227698 0.041997 0.676555 0.091429 0.086148 0.497927 0.442978 -0.837929 0.268297 0.483022 0.076268
1472 -0.381412 0.651433 -0.790319 -0.440212 0.198202 -0.129549 -0.356530 -0.690284 0.237706 0.566499 1.057848 -0.462427 -0.045226 0.448410 -0.555449 0.237366 0.633418 0.055406 0.059974 0.555466 0.454766 0.821980 0.159496 -0.578331 0.522779 0.244532 -0.817732 0.154329 -0.464801 -0.188410 0.539110 -0.933357 -0.164989 -0.176977 -0.494614 -0.148578 -1.079681 0.151036 0.548358 0.024932 -0.191024 0.309491 1.285105 -0.019741 0.690136 0.359986 0.219381 0.607973 0.149395 0.397648
1407 0.405106 0.024919 -0.627313 0.343448 -0.125680 -1.471802 0.157464 0.148113 -0.529851 0.424117 -0.024868 -0.133161 -0.542222 -0.560136 0.862043 -0.029533 0.610625 -0.199976 -0.594337 0.273349 -0.012709 -0.408436 0.475244 -0.013280 1.286224 0.376312 -0.072230 0.025087 0.744540 -0.350904 0.305244 0.136379 -0.043263 -0.195236 -0.382644 0.299170 -0.046999 0.188019 0.115259 0.971356 -0.169899 -0.233410 0.775475 -0.023013 0.777018 -0.176691 -0.517126 -0.072701 -0.051362 -0.032388
430 -0.034317 -0.013158 -0.208597 -0.672381 -0.126679 0.101148 0.237246 -0.642399 0.067390 0.116552 0.056661 -0.511325 -0.765736 0.164335 0.091644 -0.322059 -0.175190 -0.741123 -0.204513 0.249189 -0.223571 -0.148398 0.511289 -0.952624 -0.174868 -0.216711 -0.308868 -0.406654 0.628392 -0.183805 0.816714 -0.132652 -0.189209 -0.054912 -0.801541 -0.005644 -0.347570 0.373389 0.265263 -0.368104 -0.194742 0.726693 0.285002 -0.033105 0.184333 0.595225 -1.207785 0.124427 0.768079 0.152204
142 -0.124287 0.456146 -0.022421 -0.179840 -0.790413 -0.217914 -0.071569 -0.674339 0.432706 0.360799 -0.539964 -0.266333 -0.740678 -0.014687 0.267269 -0.714957 -0.053703 -0.522662 -0.329010 0.360799 -0.538566 -0.196064 0.028400 -0.582106 0.005756 -0.261278 -0.505644 -0.412341 0.155843 -0.087435 1.020919 -0.429247 -0.653136 -0.386346 -0.663738 -0.186923 -0.686497 0.056030 0.404486 -0.165989 -0.136950 0.524319 0.647200 0.240658 0.076845 0.469124 -0.373178 0.271057 0.837982 0.512011
3018 0.300974 0.918018 0.417957 0.217726 -0.079575 -0.302355 0.531384 -0.354922 0.094560 -0.298886 -0.162227 -0.774890 -0.156995 -0.335363 0.388075 0.776648 -0.456524 -0.774396 0.058355 0.450656 -0.057822 -0.164092 0.210018 -0.325018 1.440015 -0.029205 -0.105638 0.238131 -0.207829 0.026858 0.773262 0.077579 -0.542129 -0.011995 -0.268458 -0.649925 -0.773334 0.225735 0.249710 0.129855 0.576681 -0.088378 0.472166 -0.148383 0.023088 0.534859 -0.015662 -0.215418 -0.497474 0.590642
96 0.062344 0.379688 0.095525 -0.266993 -0.666283 -0.918291 -0.411089 -0.737982 -0.236139 0.011421 0.041771 -0.114967 -0.215203 -0.455245 -0.064020 0.189933 -0.029091 -0.595640 0.229055 -0.055730 0.574215 0.224613 0.880754 -0.127886 0.282443 -0.344428 -0.570031 0.067702 0.168652 -0.970390 0.260014 -0.027183 0.072980 -0.000536 -0.779736 0.018556 -0.350588 -0.280716 -0.825651 0.017034 -0.238513 0.359721 0.167430 -0.364022 0.560425 -0.072606 -0.835332 0.673762 0.169143 -0.171832
853 0.337640 0.538222 -0.147825 -0.419305 -0.071376 0.140915 -0.112329 -0.674523 -0.401525 0.023141 0.677558 -0.203715 -0.719775 0.110290 0.267237 -0.331596 0.596099 -0.637911 -0.381581 0.485330 0.185756 -0.095929 -0.113681 -0.796891 -0.079065 -0.498527 -0.247131 -0.221338 0.313089 -0.556604 0.621848 -0.428532 -0.239595 -0.383997 -0.825929 -0.400196 -0.434940 0.274497 -0.064117 -0.382131 -0.474009 -0.001910 -0.332398 -0.569954 0.088682 0.351895 -0.814518 0.035002 1.005150 0.156446
1415 0.407493 0.803389 -0.367056 -0.120128 -0.631384 -0.445943 -1.445231 -0.618482 0.542270 -0.019433 0.583596 0.763800 0.146676 -0.101370 -0.408045 0.435199 -0.461677 -0.308969 0.038732 1.034074 0.565519 -0.781052 0.464280 -0.337231 1.158488 0.567204 0.157120 0.559058 0.040351 0.660710 0.454593 0.113124 -0.411135 -0.630559 -0.139226 0.676645 0.632295 0.586183 0.043498 -0.155373 0.132511 -0.474147 0.766482 0.005911 0.381404 0.083995 -0.342268 -0.349013 0.124879 0.407016
3986 0.306567 0.306177 -0.998405 0.218030 0.341261 0.530068 0.047919 -0.195922 0.179579 0.346323 -0.423592 -0.242983 -0.331593 -1.032104 0.349409 0.663594 0.384046 -0.090241 -0.231022 0.514952 -0.054027 -0.312547 0.391522 0.424488 0.512479 -0.244353 -0.356661 0.415586 -0.330101 -0.085578 0.566359 -0.888178 -0.632258 0.220610 -1.186887 -0.240621 0.293494 1.069296 0.345259 -0.147121 0.463065 0.144825 0.488790 -0.383236 0.042201 -0.337586 0.138278 0.295340 0.075762 0.402315
2362 0.638415 0.612928 -0.679873 -0.256898 -0.712294 -0.048607 -1.036764 0.208871 -0.153040 0.728616 0.995250 -0.334150 -1.108163 -0.087597 -0.106041 0.205648 -0.180154 -0.781603 -0.307004 0.193823 0.322025 -0.018589 0.095284 -0.013317 0.633065 -0.406387 -0.297465 0.086242 -0.031224 -0.321376 -0.205227 0.136987 -0.647780 0.283834 0.545459 -0.130768 -0.488919 0.236389 0.006923 0.312108 -0.195714 -0.431094 0.878161 0.322382 -0.129607 0.478490 -0.129225 -0.618654 -0.068235 0.471861
3528 -0.314069 0.194209 0.116303 -0.035460 -0.297458 -0.213636 0.173079 -0.280090 -0.367306 0.070107 0.296741 0.047118 -0.592299 -0.149969 0.173510 0.349609 0.696353 -0.276083 -0.005111 0.637407 -0.171389 0.472633 0.617220 -0.939935 1.016797 -0.242007 -0.485759 0.332347 -0.096373 0.708953 0.465338 -0.277959 -0.041352 0.675809 -0.214457 -0.154807 0.009700 1.178946 0.031448 0.248408 0.394513 0.260445 0.822782 -0.670349 1.516289 -0.105924 -0.058533 0.399673 0.353276 -0.071424
1659 0.343229 0.340381 -0.257121 -0.544993 -0.165493 -0.023095 0.192958 -0.946136 0.144147 0.066373 -0.565055 -0.402611 -0.942751 -0.076380 -0.128992 -0.674940 -0.372701 -0.574154 0.024893 0.649025 -0.484848 0.035455 0.201694 -0.747218 -0.022233 -0.120955 -0.525056 -0.435280 0.735681 0.293557 0.964852 -0.257573 -0.165727 0.073466 -0.159287 -0.269612 -0.126933 0.327672 0.326429 -0.021948 -0.344190 0.575602 0.623839 -0.060994 0.630167 0.629449 -0.792467 -0.133548 0.780178 0.202834
227 0.645788 1.203893 -0.361582 0.165856 -0.852676 -0.077790 -0.483311 -0.511263 -0.033662 0.381955 0.996826 0.305294 -0.157861 -0.693430 -0.600835 0.544241 0.503752 -0.118167 0.348644 0.680214 1.322510 -0.911972 0.284937 -0.611048 0.993469 -0.124299 0.516240 0.147973 -0.214116 0.156278 0.272824 0.545386 0.100060 -0.765220 -0.620896 0.166063 0.797466 0.068071 0.199011 -0.555778 0.543041 -0.185693 0.661644 -0.230999 0.333600 0.340222 -0.431824 -0.610556 0.184641 0.635738
2853 0.693555 1.182383 -0.729264 -0.105052 -0.662179 0.247395 -0.687504 -0.597653 -0.128993 0.265596 0.570285 0.105144 0.127966 -1.038454 0.079712 0.542606 0.450967 -0.159928 -0.070756 0.081320 1.315413 -0.108544 -0.009522 -0.570266 1.024102 -0.046233 -0.127193 -0.092240 0.501387 0.209197 0.257367 0.729053 -0.125004 -0.162371 -0.131735 -0.247365 0.566092 0.346088 0.354306 -0.493058 0.663380 -0.193685 0.666909 -0.179542 0.340046 0.187606 -0.384853 -0.855762 0.436750 0.729005
4525 1.276476 0.368032 -0.727814 -0.127915 -0.135531 -0.104015 -0.601397 -0.509385 0.282348 0.185615 -0.017897 -0.396043 0.068296 -0.730472 -0.243645 0.224295 0.133685 -0.881997 0.534356 -0.239469 0.407237 -0.095644 -0.187909 0.240790 0.620313 0.385182 -0.311399 -0.092019 0.476069 -0.263446 0.503877 0.386462 -0.143584 0.128442 -0.126106 -0.719194 0.090704 0.912016 -0.046376 -0.507736 0.547257 0.012415 0.323482 -0.094483 -0.066668 0.520703 0.169907 -0.662497 0.536548 0.604868
3178 0.436697 0.391198 -0.481308 -0.863998 0.591085 -0.311357 -0.066285 -1.072407 0.152386 0.164035 0.760789 -0.767130 0.254438 0.338741 1.086522 -0.207484 0.103373 -0.835040 0.532319 0.446714 0.150353 -0.334003 0.590645 -0.589506 0.330746 0.087731 0.166293 0.546939 -0.052248 -0.281836 0.324044 0.119148 -0.033296 -0.113775 -0.612009 -0.278633 0.048404 0.648832 0.703392 0.079458 -0.149764 0.460887 0.872041 -0.298029 0.774177 0.467542 0.426549 0.250902 0.012327 0.801913
736 -0.068494 0.946453 -0.493197 0.316835 -0.354443 -0.654298 -0.162835 -0.590043 0.447741 -0.024918 0.514112 -0.258850 -0.997581 0.057976 -0.550146 0.284612 -0.169020 -1.269839 -0.080395 -0.214083 0.674961 0.367563 -0.031930 0.324620 0.073899 -0.198561 -1.050976 1.270881 -0.358359 0.002190 0.806947 -0.385126 -0.709989 -0.245449 -0.164058 -0.420289 -0.743682 0.005763 -0.240609 0.031352 0.544527 -0.142031 0.043736 0.631201 0.301479 -0.351145 0.616280 0.018971 -0.182380 -0.626290
4550 0.572001 -0.007702 -1.137474 -0.240382 0.029996 0.416066 -0.197801 -0.293458 0.180753 -0.255216 0.249610 -0.539819 -0.309338 -0.741851 0.026568 0.372343 0.371674 -0.413341 0.321821 0.113102 -0.341696 -0.677616 0.802758 -0.015000 0.533102 -0.235652 -0.345772 0.026540 -0.220977 -0.044283 0.665680 -0.658128 -0.266513 0.245053 -0.591916 -0.911137 0.124787 0.588092 0.122737 -0.500274 0.587938 0.323974 0.378249 -0.153425 -0.444755 -0.261409 0.200344 -0.168293 0.032934 0.944061
271 0.815883 -0.060243 -0.661046 -0.130800 -0.141084 0.095718 -1.116716 -1.285750 0.406444 0.695221 0.408280 0.445026 0.669180 -0.660466 -0.777857 0.412314 -0.185066 -0.863955 -0.489442 0.061571 0.129589 -0.039237 -0.300336 -0.578538 1.083585 -0.388159 -0.229140 -0.198119 0.687653 -0.487820 0.148991 0.250039 -0.392091 0.270989 -0.183012 0.423209 0.812547 0.711127 -0.666031 -0.558528 0.248175 -0.535210 1.405866 0.343086 0.423719 0.181578 0.110258 -0.365265 0.204424 -0.061096
30 0.832822 -0.433884 -0.449053 1.395565 -1.136048 -0.251120 0.427177 -0.216754 0.718033 0.254348 0.533572 -0.336119 -0.462562 -0.720118 -0.053172 -0.351496 0.191607 -0.987626 -0.044970 1.283069 -0.597281 -0.217301 0.663092 -0.922850 0.578410 -0.020551 -0.175992 0.281456 -0.107857 0.519779 0.980230 -0.372928 -0.316440 -0.596827 -0.512375 0.168799 0.405687 0.256727 0.248766 -1.169660 0.553215 0.098629 0.439810 -0.212398 0.247504 0.584056 0.309705 -0.397635 -0.087455 0.039957
2764 0.080016 0.121624 -0.503855 -0.340183 0.077111 0.001620 -0.058077 -0.987422 -0.197585 -0.031195 0.239610 -0.754346 -0.541851 -0.029260 0.564035 -0.545477 0.479636 -0.761401 -0.505649 1.002779 0.334598 -0.193829 -0.562168 -0.803161 -0.097893 -0.244981 -0.690663 -0.275954 0.020812 -0.592525 0.752255 -0.075356 -0.351256 -0.111021 -0.744009 0.058751 -0.513660 0.680241 -0.052929 -0.026376 -0.425314 0.466711 -0.361783 -0.121983 0.128853 0.638484 -0.855003 0.240797 0.361552 -0.137465
3314 -0.018500 0.139647 0.170201 0.007468 -0.516853 0.088412 -0.877681 -0.300982 -0.288263 0.696180 0.150110 -0.195056 -0.728320 0.054835 -0.111488 0.120448 -0.024168 -0.158716 -0.730065 0.451561 0.719971 0.406593 0.005216 -1.317174 0.440396 0.547660 -0.850034 -0.083014 -0.321166 -0.507208 0.637618 -0.824248 0.115444 -0.226339 -0.632155 -0.112653 -0.528939 0.164770 0.107438 -0.017019 -0.073168 0.522323 0.735202 -0.023267 0.776344 0.535084 0.153808 0.794271 0.182905 0.442278
4408 0.451219 0.514471 0.303805 0.105524 -0.263104 0.067025 0.069179 -0.315709 0.025386 -0.149301 0.318442 -0.510459 -0.116702 -0.283540 0.300199 0.558479 -0.380852 -1.451143 0.059324 0.165225 0.420852 -0.554418 0.427666 -0.423655 0.678419 -0.603934 -0.290518 -0.396225 0.093697 -0.015110 0.517608 -0.204007 -0.468657 0.444378 -0.612640 -0.201850 -1.082729 0.563262 0.131066 0.233985 0.450622 0.146372 -0.448769 0.148423 -0.354958 0.488688 0.058880 -0.039414 -0.413094 0.397091
268 0.081492 -0.005348 0.351466 -0.154839 0.338258 -0.128862 -0.141231 -0.743250 0.331476 0.142829 0.174254 -0.021258 -0.882284 -0.287529 -0.005267 0.597505 -0.152747 -0.759961 -0.093543 0.364103 0.003230 0.082963 0.551122 -0.777622 0.304623 -0.525046 -0.384870 -0.550928 0.689089 -0.102420 0.424274 0.355690 -0.081581 -0.240823 -1.180205 -0.330338 -1.045799 0.130924 -0.048508 0.434295 -0.181056 0.379205 -0.375716 0.030083 -0.188624 0.252716 -0.636031 0.210009 -0.062765 0.197638
1905 -0.033074 -0.146514 -0.141969 -0.392609 -0.345718 0.028850 0.372735 -0.833294 -0.201300 -0.061987 0.051323 -0.693782 -0.899828 0.007627 0.013864 -0.592768 -0.203156 -0.423355 -0.271079 0.664797 -0.115309 -0.103256 -0.188420 -0.504156 -0.203617 -0.085838 -0.426349 -0.800414 0.174601 -0.043694 1.198258 0.075503 -0.318797 -0.094463 -0.641687 0.164265 -0.346098 0.538974 0.073052 -0.179947 -0.032566 0.404811 0.777224 0.081103 0.382037 0.317591 -0.693850 0.234552 0.814152 -0.216659
4873 0.633289 0.265217 -0.444548 -0.312832 -0.723009 -0.937368 -0.782863 -0.824203 -0.094565 0.490491 -0.101253 0.236737 0.045838 -0.213056 0.214795 -0.001854 0.269663 -0.421989 0.664097 0.247064 0.575499 0.004021 0.456166 0.245450 1.004837 -0.358320 -0.225011 0.097383 0.376954 -1.144473 0.606426 0.010340 0.251177 0.422870 -0.112683 0.293476 -0.177918 -0.087939 -0.728206 -0.212792 -0.273620 0.136150 0.670557 -0.785256 0.356211 -0.158474 -0.612420 0.833300 0.108614 -0.207670
0 0.238070 -0.129954 -0.443194 -0.408280 -0.220399 -0.193579 -0.036958 -0.804655 -0.455034 0.079412 0.109614 -0.755930 -0.286575 -0.720983 0.303753 -0.444275 -0.007965 -0.719075 -0.071238 0.581867 -0.095425 -0.224319 0.159051 0.003731 0.628691 -0.057765 -1.220681 -0.359647 0.475088 -0.719049 0.398467 -0.007123 -0.903198 -0.644001 0.079083 -0.242575 -0.425317 0.729415 0.619628 -0.554838 0.131996 0.463126 -0.614770 -0.123591 -0.062581 0.394461 -0.326435 -0.204965 -0.336276 0.043276
3898 0.198782 0.996735 0.119103 -0.059144 -0.320529 -0.410407 -0.253826 -0.553938 0.544306 0.392882 0.428637 0.033920 0.403506 -0.498620 -0.409402 -0.092588 0.489742 -0.874592 0.242628 1.160645 0.436119 -0.767874 0.453026 -0.322055 0.471751 0.283717 -0.873970 0.260094 0.373620 0.050030 0.934961 -0.479364 -1.165141 0.677740 -0.720067 -0.944339 0.380440 -0.037220 0.677332 -0.143283 0.053834 0.031627 0.472152 0.531799 -0.548892 -0.688916 0.672341 -0.413775 0.159626 0.130249
2317 0.819666 0.341607 0.195175 -0.218964 0.358865 -0.693609 0.149067 -0.555090 -0.103458 0.914115 0.541008 0.278453 -0.512473 0.266898 0.404000 -0.376066 -0.436869 0.063109 -0.755330 0.291699 -0.178645 -0.149465 0.249975 -0.210558 0.940272 0.346705 -0.205905 0.111238 -0.082934 -0.808732 0.347671 -0.334545 -0.455076 -0.038843 -0.935433 0.424640 -0.166228 0.389234 0.044143 -0.003775 0.021572 -0.450004 1.039866 -0.303080 0.886795 0.214115 0.229469 0.048208 -0.209002 0.882858
813 0.155843 0.640702 0.068817 0.167828 -0.338879 -0.190217 -0.569410 -0.303823 0.469135 0.211947 0.451390 0.142814 0.262138 -0.480017 -0.506983 0.072865 0.391310 -0.788986 0.071123 0.993269 0.216616 -0.739978 0.405879 -0.391697 0.722863 0.325511 -0.860789 0.475174 0.353736 -0.059204 1.205980 -0.477174 -1.215699 0.841265 -0.717832 -1.245961 0.404906 -0.048020 0.551591 -0.130664 0.009345 -0.458665 0.539673 0.427523 -0.399834 -0.754949 0.411618 -0.357458 0.090367 -0.166257
1646 0.788973 -0.101604 -0.363405 -0.519502 0.005727 0.279958 -0.341722 -0.573602 -0.332494 0.121280 0.744831 -0.491681 0.155540 -0.213934 0.455776 0.220178 0.258354 -0.866369 0.001853 0.050548 0.052061 -0.590207 0.369554 -0.234704 0.501155 -0.301230 -0.736465 -0.276716 0.291862 -0.572344 0.398555 -0.691708 -0.468468 -0.238153 -0.226957 -0.411276 -0.835268 0.686370 0.553368 -0.429126 0.295097 -0.102795 -0.519168 -0.202735 -0.263041 0.694572 -0.238315 -0.040929 0.494422 0.447991
4405 0.224581 0.687514 0.042012 -0.018651 -0.159845 -0.388835 -0.420966 -0.196155 0.479199 0.204609 0.378458 0.119384 0.189960 -0.309008 -0.510063 0.157419 0.375093 -0.718181 0.050717 1.164943 0.128794 -0.665910 0.429583 -0.338992 0.660036 0.474015 -0.956887 0.493066 0.430038 -0.063633 1.062597 -0.485912 -1.147094 0.929555 -0.610337 -1.032258 0.445040 -0.059907 0.491605 0.057893 -0.029120 -0.459896 0.545517 0.381898 -0.346306 -0.676408 0.479355 -0.430768 0.199494 -0.199724
1186 0.353166 0.279538 0.084581 -0.378031 -0.053323 -0.471862 -0.976180 -0.459138 0.602253 0.192270 0.490963 -0.444325 0.057184 0.064992 -0.630786 -0.265660 -0.362471 -0.506132 -0.270742 0.902070 0.371709 -0.439969 0.524415 -0.731403 0.548615 -0.353145 -0.455067 1.103280 0.312993 -0.068788 0.694416 -0.338646 0.767402 -0.078247 0.207310 0.271892 0.533164 1.490810 0.347536 -0.918663 0.524680 -0.726063 -0.265297 -0.140181 0.537936 0.202632 -0.542507 -0.120899 -0.607247 -0.374453
793 0.985887 1.176503 -0.103321 -0.055917 -0.327275 0.049175 -0.181010 -0.548191 -0.395383 0.442687 0.456907 0.096231 -0.085122 -0.825378 -0.231947 0.587552 0.482732 -0.342063 -0.041665 0.769830 1.615544 -0.506996 0.024429 -0.751012 0.587207 -0.612757 0.622849 -0.013270 0.077389 -0.094387 0.498739 0.742151 0.337531 -0.309001 -0.370310 -0.497447 0.209696 0.051779 0.357644 -0.702068 0.108937 -0.491606 0.522875 -0.378768 0.662378 0.209923 -0.444298 -0.553658 0.302851 0.414493
1773 0.151388 1.212340 -0.316140 -0.140737 -0.074239 -0.220549 -1.031530 -0.662286 0.576497 0.302614 0.260216 -0.027330 -0.014941 -0.359771 -0.748954 0.463632 -0.136099 0.078732 -0.274635 1.146555 0.688532 -0.527864 0.287325 -0.485651 0.598846 0.681769 -0.162301 0.651826 0.422658 0.467986 0.466963 -0.318841 0.582696 -0.448451 0.251826 0.314990 0.500826 1.393988 0.230200 0.063430 0.522383 -1.147235 0.361213 -0.014545 0.550097 -0.095741 -0.720622 -0.232692 0.014531 0.286916
3739 0.275199 0.700958 0.214359 -0.082567 -0.304718 -0.253018 -0.441237 -0.163896 0.435119 0.312176 0.352187 0.113552 0.240779 -0.406850 -0.566941 0.053480 0.589222 -0.894566 0.032453 1.058143 0.126081 -0.805712 0.269472 -0.262847 0.696020 0.343592 -0.923402 0.562192 0.310696 -0.011530 1.155049 -0.607775 -1.258826 0.969795 -0.650890 -1.071258 0.491336 -0.163486 0.480997 -0.157052 -0.144259 -0.350019 0.609612 0.331144 -0.260115 -0.713308 0.317431 -0.458235 0.084378 -0.295751
2681 -0.083201 -0.088928 0.009047 -0.452212 0.115907 -0.779403 -0.129498 -0.843530 -0.040751 0.375334 0.211204 -0.600037 -0.321606 -0.805865 -0.423142 0.292331 -0.171678 -1.106721 -0.145903 0.183024 0.159560 -0.149906 0.646327 -0.045107 -0.080872 -0.418151 -0.612133 0.409676 0.048711 -0.727145 -0.059762 0.001904 0.182307 -0.469999 -0.617901 -0.694712 -0.394588 -0.146736 -0.283558 0.796396 -0.138375 -0.075655 0.334175 -0.038041 0.622738 -0.584199 -0.956865 0.200399 0.222091 0.162552
4893 0.219730 0.741368 0.113538 0.001461 -0.396077 -0.338974 -0.477476 -0.341078 0.397589 0.237760 0.421401 0.081001 0.126908 -0.445852 -0.389379 0.048942 0.501047 -0.797681 -0.006554 1.147882 0.262412 -0.794882 0.439198 -0.339750 0.614677 0.551594 -0.888453 0.618463 0.334876 -0.042834 1.073463 -0.651949 -1.134330 0.937843 -0.694819 -1.011238 0.443078 -0.052105 0.508594 -0.158907 -0.028292 -0.300978 0.511081 0.423797 -0.439949 -0.764624 0.430116 -0.299214 0.223311 -0.228504
4894 0.710596 -0.552003 -0.338106 1.403124 -0.917739 -0.283388 0.186261 -0.299567 0.662772 0.383022 0.402198 -0.109033 -0.357535 -0.702604 0.010946 -0.386725 -0.392296 -1.022066 -0.188636 1.229577 -0.375941 -0.626747 0.788289 -0.901307 0.541660 0.039884 -0.094843 0.526162 -0.532024 0.459262 1.040127 -0.383200 -0.310360 -0.676885 -0.576766 0.239756 0.792879 0.244706 0.099754 -0.984566 0.137114 0.066390 0.564377 -0.136272 0.450020 0.485681 0.256455 -0.144270 -0.266049 0.280332
4067 0.250777 0.726217 0.184791 -0.080081 -0.393688 -0.391778 -0.486207 -0.096800 0.421721 0.331220 0.303094 0.151948 0.221561 -0.437438 -0.560477 -0.115671 0.604002 -0.854268 0.104340 0.934727 0.129427 -0.788351 0.324447 -0.361247 0.667281 0.385560 -1.000835 0.400676 0.359563 0.108695 1.187960 -0.347022 -1.194738 0.959037 -0.851034 -1.125326 0.453078 0.096987 0.506159 -0.100945 -0.123247 -0.628036 0.540913 0.493188 -0.279824 -0.750970 0.279166 -0.375779 0.189113 -0.169178
3009 0.275909 0.824948 0.079237 -0.145921 -0.110929 -0.350748 -0.506959 -0.200912 0.514306 0.226704 0.386224 0.016147 0.173626 -0.515906 -0.593333 0.150629 0.522395 -0.695721 0.163750 1.056072 0.105557 -0.708913 0.458469 -0.465211 0.691015 0.438556 -0.828964 0.554551 0.564025 -0.081810 0.983166 -0.440023 -1.371324 0.937915 -0.671657 -1.004377 0.571014 -0.107873 0.558524 -0.146310 -0.135901 -0.392640 0.532852 0.503401 -0.422621 -0.724904 0.322927 -0.253035 0.151226 -0.196913
1980 0.264499 0.661035 0.035002 -0.011438 -0.386037 -0.230287 -0.552651 -0.258282 0.404327 0.388987 0.409641 0.012182 0.175532 -0.373514 -0.422140 0.067355 0.521970 -0.797046 0.088749 1.137778 0.130335 -0.709955 0.196262 -0.543911 0.711430 0.475100 -0.986609 0.519464 0.467056 0.068487 1.089753 -0.500775 -1.248624 0.891848 -0.552520 -1.085743 0.361514 -0.031771 0.511469 -0.127047 -0.024038 -0.371716 0.579892 0.385225 -0.390110 -0.733924 0.539741 -0.239264 0.253504 -0.160153
2848 0.287540 0.726634 0.018701 0.010176 -0.378367 -0.273810 -0.567022 -0.108102 0.592260 0.342992 0.432362 0.245908 0.186590 -0.333200 -0.584194 -0.002104 0.480865 -0.665104 0.100029 1.039711 0.123095 -0.873761 0.397897 -0.362017 0.726527 0.342388 -0.988767 0.527068 0.400466 -0.041193 1.088267 -0.638102 -1.214676 0.940648 -0.617190 -1.146625 0.491792 -0.154573 0.304467 -0.110897 -0.052074 -0.507108 0.664646 0.349768 -0.339339 -0.681424 0.394062 -0.399464 0.225905 -0.229085
3235 -0.096974 0.513739 -0.030106 -0.361735 -0.444044 -0.366668 -0.415905 -0.270504 0.547359 0.260407 0.372997 0.379286 0.514223 -0.743247 -0.263883 0.208480 0.637406 -0.952245 -0.064462 1.194119 0.229691 -0.482670 0.317759 -0.132767 0.474854 0.161574 -0.586387 0.418879 0.420335 -0.196764 0.937790 -0.338166 -0.793591 0.934015 -0.456805 -1.101112 0.236632 0.037670 0.615323 0.067433 -0.302291 -0.603229 0.767700 0.713225 -0.579730 -0.646430 0.222024 -0.372650 0.485925 -0.213175
960 0.187409 0.693037 -0.069938 0.092250 -0.184524 -0.413971 -0.517009 -0.227048 0.460349 0.400703 0.502757 -0.047925 0.089886 -0.462359 -0.544407 0.189937 0.551479 -0.762503 0.055771 0.911683 0.184953 -0.715237 0.309639 -0.486285 0.695453 0.452671 -1.025805 0.405081 0.429479 0.089969 1.031794 -0.661410 -1.179394 1.006826 -0.756920 -1.221088 0.454904 0.047900 0.558795 -0.179691 -0.160808 -0.385291 0.546376 0.341596 -0.313664 -0.848256 0.502348 -0.266379 0.142535 -0.291531
253 0.685620 0.399574 -0.005757 -0.192981 -0.841287 -0.609133 -0.352342 -0.653338 -0.539816 0.311718 -0.183380 0.402988 -0.172112 -0.181884 -0.307605 0.145142 -0.181016 -0.103939 0.341237 0.114624 0.445433 0.160395 0.153996 -0.012573 0.455124 -0.824234 -0.306775 0.285134 0.323779 -0.904146 0.866664 -0.182238 0.070814 0.406234 -0.360653 0.129446 -0.399276 0.004128 -0.695738 -0.619394 -0.273286 0.343949 0.913159 -1.010820 0.566552 0.408786 -0.664191 0.829105 -0.027457 -0.133897
4961 0.329988 0.071309 0.020077 -0.705144 -0.170373 -0.232797 -1.227271 -0.540908 0.778799 -0.056079 0.513661 -0.288769 0.282301 -0.075832 -0.693970 -0.100341 -0.286745 -0.645338 -0.225492 0.946001 0.374395 -0.306434 0.872922 -0.729837 0.925980 0.316386 -0.203067 0.686255 0.327838 -0.235097 0.690180 -0.153383 0.721947 -0.285017 0.016949 0.841148 0.535479 1.484609 0.415512 -1.006677 0.356646 -0.741395 -0.104960 0.265889 0.563975 0.163436 -0.775982 -0.029009 -0.557563 -0.140816
2670 0.646057 0.934900 -0.491579 -0.980343 -0.345140 -0.589824 -1.005375 0.101957 -0.050960 0.296665 0.008208 -0.186578 -1.047662 -0.078158 -0.076151 0.250466 0.327753 -1.605322 0.262299 -0.075923 0.212115 0.033086 -0.247558 0.180022 0.365326 -0.689794 -0.490790 0.749186 -0.478109 -0.391900 0.455157 -0.151968 -0.297668 -0.331050 0.363207 -0.396195 -0.259440 -0.012748 -0.114289 -0.142426 0.135993 -0.460660 0.281698 0.534277 -0.125006 0.050879 -0.065462 -0.419405 0.065587 -0.218904
574 0.364336 0.732844 0.107732 0.038563 -0.246949 -0.379049 -0.548011 -0.239948 0.393612 0.269412 0.347704 0.086824 0.151484 -0.277097 -0.449001 0.015549 0.443903 -0.762012 0.124182 1.067092 0.163046 -0.784684 0.422172 -0.369396 0.751280 0.395306 -0.960075 0.661395 0.460415 -0.104994 0.961340 -0.699319 -1.098355 0.814820 -0.648691 -1.092037 0.473772 -0.137198 0.635786 -0.165525 -0.218658 -0.472002 0.602655 0.470102 -0.461001 -0.629571 0.376171 -0.287464 0.078335 -0.005118
12 0.302317 -0.000735 -0.016276 -0.585626 -0.186998 0.197321 -0.231546 -0.676623 -0.202026 0.734903 0.374828 -0.503497 -0.433531 -0.185761 0.133088 -0.222184 -0.065533 -0.673094 -0.200400 0.491838 -0.450796 -0.105620 0.897263 -0.054825 0.497254 -0.328740 -1.274253 0.093094 0.567528 0.021073 0.332011 -0.213413 -0.811662 -0.574621 0.345011 -0.354355 -0.498066 0.972667 0.502984 -0.630671 0.319270 0.556765 -0.257479 -0.527492 -0.255193 0.367113 -0.207199 0.089563 -0.311642 -0.079467
1911 0.249438 0.732783 0.005227 0.025760 -0.188129 -0.315737 -0.581855 -0.250393 0.448089 0.243689 0.416512 0.120120 0.247470 -0.307762 -0.525698 0.063359 0.533138 -0.797214 0.179983 1.031858 0.277477 -0.731071 0.525392 -0.320632 0.771105 0.405100 -0.851476 0.539747 0.433831 -0.049994 1.003382 -0.542764 -1.260141 0.883239 -0.623534 -1.064341 0.546565 -0.106544 0.478413 -0.138905 -0.011954 -0.507952 0.532323 0.472247 -0.342945 -0.616372 0.475247 -0.294966 0.173206 -0.161059
3557 0.740916 0.970179 0.771776 -0.007620 -0.628072 -0.181354 -0.594132 -0.988606 0.343589 0.086156 -0.136830 -0.683973 -0.306707 -0.535904 -0.327046 -0.045950 0.016278 -0.533778 0.767972 0.174754 0.311222 -0.114076 -0.450958 -0.182330 0.155539 -0.816384 -0.090185 0.412869 0.112811 -0.598986 -0.064550 -0.084858 -0.011003 0.159847 -0.046988 -0.563919 -0.559858 0.825010 -0.108897 0.630339 0.517651 -0.917931 0.673488 0.052511 0.600578 0.188530 -0.579490 -0.169286 -0.432416 0.190105
4843 0.165339 0.595575 -0.010930 -0.067489 -0.329829 -0.301944 -0.318060 -0.311444 0.415494 0.360486 0.426313 0.092203 0.227377 -0.274323 -0.615189 0.127799 0.340962 -0.751558 -0.002177 1.071310 0.104797 -0.833642 0.504540 -0.291426 0.885886 0.390523 -0.947481 0.494341 0.431770 0.059508 1.072979 -0.535360 -1.303161 0.880204 -0.485803 -1.032126 0.362989 -0.146233 0.520516 -0.066058 -0.163731 -0.457964 0.517295 0.423086 -0.384261 -0.727520 0.377825 -0.317681 0.212390 -0.103154
116 0.128710 0.661592 0.109313 -0.029193 -0.326177 -0.433538 -0.518805 -0.256257 0.467802 0.197464 0.378765 0.301854 0.155891 -0.401056 -0.357735 -0.029250 0.448860 -0.853013 -0.121763 0.858971 0.161902 -0.797713 0.457211 -0.557528 0.905264 0.368379 -0.969768 0.405631 0.373426 -0.104724 0.977580 -0.581699 -1.262562 0.990923 -0.655176 -0.976198 0.383331 -0.038879 0.402925 -0.165914 -0.240832 -0.453211 0.678349 0.326272 -0.451988 -0.735028 0.389797 -0.431516 0.044749 -0.240030
618 0.565276 1.621584 -0.243950 0.268203 -0.509765 0.108157 -0.576464 -0.200742 -0.095588 0.445072 0.529433 -0.276922 -0.023149 -0.889489 0.343154 0.677483 0.372927 -0.363262 0.034720 0.523070 1.557216 -0.754242 0.322616 -0.831894 1.146295 -0.092742 0.218580 -0.131899 0.420046 -0.174611 0.175254 0.959926 -0.272634 -0.142204 -0.365564 0.004533 0.342353 -0.207719 0.176395 -0.570354 0.666301 -0.190266 0.699915 -0.391867 0.431137 0.335281 -0.291363 -0.764636 0.186376 0.723583
2508 0.409016 0.561335 0.135899 0.081171 -0.238798 -0.291347 -0.579691 -0.294402 0.438449 0.215418 0.254378 0.208362 0.209768 -0.358592 -0.517846 0.024003 0.515768 -0.744343 0.071822 0.932915 0.059718 -0.879233 0.452718 -0.452020 0.640438 0.312876 -0.929221 0.488890 0.479513 -0.031402 1.153846 -0.628639 -1.191100 0.863068 -0.691917 -1.129478 0.434532 -0.092661 0.426370 -0.089055 0.000754 -0.483987 0.633219 0.599034 -0.420464 -0.638699 0.391501 -0.334021 0.241207 -0.181829
1035 0.255177 0.761533 0.102900 -0.056884 -0.419033 -0.260708 -0.514202 -0.306179 0.501711 0.330514 0.309425 0.121011 0.302006 -0.380070 -0.451250 0.038467 0.362765 -0.637724 0.052428 1.089284 0.022009 -0.718016 0.309062 -0.492648 0.823231 0.399507 -0.886198 0.464217 0.373411 -0.140943 1.118061 -0.659651 -1.147543 0.854342 -0.804233 -1.099084 0.489410 -0.086511 0.665702 -0.277820 -0.113091 -0.530607 0.529751 0.402938 -0.522868 -0.639621 0.406088 -0.385076 0.226907 -0.193844
1037 0.218028 0.703467 0.034934 -0.059320 -0.184112 -0.272966 -0.590158 -0.198930 0.391717 0.242797 0.378027 0.077075 0.106259 -0.291671 -0.519292 0.214078 0.406704 -0.655603 0.076871 1.033375 0.136875 -0.731327 0.260325 -0.447720 0.821441 0.483348 -0.985551 0.468356 0.357613 0.022977 1.087013 -0.549312 -1.239979 0.926769 -0.780316 -1.111960 0.533886 -0.074490 0.610757 -0.228040 0.131454 -0.486457 0.485468 0.414407 -0.439660 -0.732433 0.289104 -0.438007 0.062203 -0.108874
1332 0.254359 0.616413 0.032553 -0.084635 -0.276313 -0.387973 -0.457942 -0.230283 0.456221 0.251392 0.418901 0.135061 0.200138 -0.385122 -0.352847 0.180781 0.598664 -0.763673 0.114387 1.098611 0.157249 -0.817755 0.288852 -0.351060 0.692990 0.343266 -0.960645 0.580146 0.407520 -0.093792 0.998895 -0.581290 -1.204055 0.959075 -0.595760 -1.095960 0.368730 0.046226 0.551850 -0.081090 -0.138093 -0.480036 0.576200 0.462339 -0.386971 -0.681951 0.449738 -0.297499 0.098976 -0.202996
2467 -0.612545 0.299991 -0.933590 -0.236346 0.041553 -0.224116 -0.530186 -0.535551 0.559817 1.048646 0.314508 -0.682612 0.177016 0.649680 -0.825672 0.160195 0.886211 -0.099112 0.100430 0.587518 0.631114 0.621593 0.701651 -0.881013 0.543756 -0.439080 -0.993952 -0.051548 -0.581923 -0.332243 0.798901 -0.563933 -0.166014 -0.046341 -0.470098 0.194067 -1.499098 0.488892 0.538009 -0.160572 -0.425275 0.255750 1.448060 0.050927 0.473691 0.271658 0.000550 -0.531868 0.092399 -0.041835
2138 -0.220337 0.121725 0.366212 -0.327435 -0.447184 -0.073358 0.282685 -0.342532 0.154824 0.330874 0.171336 -0.141798 -0.494459 -0.264953 0.447340 0.356231 0.346488 -0.389185 -0.426104 0.826445 -0.125573 0.691432 0.195369 -0.136711 0.858841 -0.238907 0.030838 0.109091 0.376898 1.047544 0.698895 -0.927889 -0.241998 0.481391 -0.460575 -0.305747 0.267390 1.151612 0.263214 0.224377 0.763562 0.467304 0.467716 -0.537788 1.095106 -0.209273 -0.182238 0.146489 0.577050 0.083583
401 0.273460 -0.232817 -0.309336 -0.094935 -0.665261 -0.660840 -0.285863 -0.066308 -0.638712 0.860624 0.215787 0.041267 -0.399507 0.110454 -0.062598 0.463000 0.360558 -0.184425 -0.524575 0.227443 -0.189131 0.077984 -0.099641 0.035742 0.772714 0.128542 0.027053 0.108296 -0.209184 -0.587100 0.739492 0.117162 0.297575 0.367765 -0.862362 0.452554 -0.978770 0.707518 0.193484 0.720033 0.219533 0.288724 1.171139 -0.520665 0.394911 -0.311711 -0.219889 -0.340038 -0.149185 0.036700
33 0.410731 0.631219 -0.039226 0.001838 -0.248670 -0.355298 -0.490179 -0.175887 0.558466 0.269863 0.454657 0.039476 0.254095 -0.332455 -0.430982 -0.008291 0.494118 -0.747714 0.039555 1.061151 0.192456 -0.803742 0.361655 -0.294454 0.717693 0.464930 -0.943459 0.511418 0.376962 -0.111512 1.037361 -0.547378 -1.158649 0.888982 -0.744048 -1.127175 0.523292 -0.171850 0.518995 0.049328 -0.115079 -0.356620 0.742523 0.478295 -0.373240 -0.731888 0.458459 -0.348721 0.205664 -0.161082
1700 0.258432 0.714488 0.036892 -0.020227 -0.285491 -0.325468 -0.453842 -0.414272 0.401655 0.206497 0.315130 0.094497 0.178227 -0.398010 -0.419466 0.130166 0.470580 -0.828996 0.091029 1.020025 0.104758 -0.810752 0.470591 -0.300610 0.847683 0.551288 -0.864447 0.514161 0.414632 0.039969 1.041708 -0.710461 -1.144674 0.909004 -0.670443 -1.084561 0.529649 -0.092178 0.580110 -0.182829 -0.108678 -0.438999 0.523114 0.363204 -0.333132 -0.835807 0.302956 -0.233404 0.256284 -0.240561
1329 0.639888 -0.145115 -0.198406 -0.007021 -0.494915 -0.195033 0.137556 -0.740022 -0.055541 0.131944 0.087847 0.146998 -1.118444 0.395814 0.440705 -0.512038 -0.104132 -0.330227 -0.371996 0.589640 -0.106814 0.032829 -0.174346 -0.494066 0.289836 -0.177138 -0.408993 -0.408008 -0.071362 -0.571724 0.532153 -0.163278 -0.339055 -0.519657 -0.749123 0.374060 -0.674763 0.088958 -0.717681 0.267372 0.594902 0.391962 0.983652 -0.127724 -0.276516 -0.039051 -0.549872 -0.424224 0.625975 -0.055885
4125 0.440803 -0.346646 -0.065439 -0.845895 -0.668303 -0.290554 0.089696 -0.320768 0.882338 0.529239 0.364315 -0.471783 -0.657152 -0.400994 0.474826 0.340588 -0.183860 -0.232528 -0.810611 1.570295 -0.194879 -0.506347 0.825510 -0.158717 0.376378 -0.274266 -0.074357 0.961895 -0.066646 0.151618 0.516248 -0.808051 -0.789501 0.262155 0.224132 -0.387507 -0.493423 0.687527 -0.119959 -0.922736 1.089035 0.574574 -0.143450 -0.378285 0.551892 0.192879 0.247008 -0.598961 0.135244 -0.840096
3752 1.073958 -0.066833 0.008019 -0.570003 -0.571548 -0.260905 0.480830 0.139304 0.328170 1.013085 0.941468 -0.294439 -1.362400 -0.853567 -0.022677 0.935926 -0.063361 0.622770 -0.116076 0.627425 0.639135 -0.568066 -0.013630 -0.169742 0.169833 -0.203266 -0.423388 0.578135 0.534005 -0.467993 0.959128 -0.097349 -0.158951 0.512423 -0.244128 0.285171 -0.172362 -0.200592 -0.188869 -0.584531 0.048105 0.688999 0.291954 -0.107521 0.540183 0.042247 -0.219536 -0.244941 0.339642 0.258039
841 0.671340 0.392513 -0.196162 0.092759 0.121351 0.081116 -0.314711 -0.230125 0.396737 0.074010 0.072400 0.039009 -0.122055 -0.268972 -0.352084 0.460588 0.274788 -0.733113 0.084928 0.724316 -0.005640 -0.960718 0.698171 -0.184846 0.611120 0.123637 -1.201181 0.651927 0.259814 0.028324 1.004794 -0.801920 -0.953310 0.984680 -0.516385 -0.908897 0.537606 0.199850 0.558324 -0.136965 0.292289 0.001594 0.528950 0.070912 -0.338570 -1.009556 0.559173 -0.224909 0.163267 0.080224
3862 0.268830 -0.021553 0.164036 -0.191697 0.254226 0.451058 -0.497600 -0.404871 -0.159763 0.721120 0.442565 -0.209681 -0.301567 -0.129307 0.042895 0.268068 0.277116 -0.414508 -0.092142 0.393899 -0.099486 -0.461664 0.989748 0.106668 0.755246 -0.267038 -0.739793 0.538811 0.461908 0.189264 0.362560 -0.490038 -1.423409 -0.573522 -0.237889 -0.264392 -0.318714 1.224612 0.422026 -0.514156 0.164552 0.391307 -0.340521 -0.636381 -0.090553 0.829993 -0.135371 0.178934 -0.074118 0.049466
5116 0.313786 0.687094 0.142054 0.057385 -0.356266 -0.380041 -0.451507 -0.385082 0.371034 0.172523 0.331856 0.101235 0.141482 -0.362139 -0.516183 -0.055700 0.411666 -0.825340 0.053526 1.117769 0.009257 -0.747861 0.499491 -0.395079 0.889309 0.351725 -0.909506 0.478532 0.389831 0.017547 1.060624 -0.472386 -1.247343 0.898691 -0.659682 -1.068965 0.509945 -0.137059 0.446891 -0.238390 -0.030820 -0.484078 0.503833 0.445768 -0.370107 -0.943970 0.401983 -0.192531 0.178264 -0.254120
1211 -0.180637 0.436104 0.163114 -0.312254 -0.517440 -0.556700 -0.153708 -0.894283 -0.215551 -0.149737 0.415598 -0.380606 -0.566160 -0.792183 -0.081847 0.641318 0.142345 -0.619539 -0.540769 0.335894 0.294665 0.128306 0.925240 0.079961 -0.220688 -0.109264 -0.834119 0.258643 -0.003112 -0.635359 0.060973 0.103236 0.140632 -0.191639 -0.862119 -0.182530 -0.344631 -0.270633 -0.649170 0.526003 0.053938 0.165150 0.444463 -0.373925 0.341741 0.159257 -0.676157 0.224517 0.230455 -0.042753
4116 1.086807 0.761687 -0.086204 -0.378951 -0.180364 -0.163734 -0.318531 -0.103155 -0.473257 0.196485 0.316335 0.556607 0.008177 -0.217002 0.242406 0.387553 0.329350 -0.091381 -0.550181 0.602766 -0.787650 -0.468688 0.367508 0.061138 0.477485 0.291791 -1.124791 -0.094783 0.155127 0.161725 0.380702 0.288826 -0.095620 0.271058 -0.235336 -0.551230 -0.195150 0.359777 0.079812 -0.559881 0.174339 0.604851 1.226298 -0.262127 0.325055 -0.258270 -0.229156 0.690963 -0.570613 0.019023
2796 -0.038225 0.216128 0.388478 -0.312835 -0.135677 -1.120826 -0.183365 -0.729545 0.018579 0.101597 0.530577 -0.616234 -0.413100 -0.764369 -0.246388 0.144141 0.176148 -0.565566 -0.638914 0.075746 0.138415 -0.074884 0.981225 -0.196191 0.118365 -0.318522 -0.410976 0.040451 0.083843 -0.581774 0.222400 -0.378852 -0.160758 -0.484474 -0.259780 -0.563526 -0.313377 0.011480 -0.695155 0.508992 -0.138097 0.463947 -0.077251 -0.447774 0.286554 -0.242090 -0.860006 0.074086 0.235985 -0.078532
3229 0.609665 0.624918 -0.163956 -0.219086 -0.043803 0.489713 -0.115191 -0.473286 -0.898401 0.638953 0.887136 -0.016036 -0.699413 -0.463180 0.347159 0.041964 -0.179928 -0.549423 0.046072 1.024744 0.803555 -0.347390 -0.049539 -0.161411 0.532628 -0.907021 0.335515 -0.471142 -0.209425 0.204269 0.201716 0.334188 -0.127014 -0.037144 -0.547113 -0.554169 -0.315980 0.070337 -0.092783 -0.582326 -0.613063 -0.504653 0.069848 -0.449002 0.462018 -0.225614 -0.388983 -0.652415 0.648486 -0.171225
4697 -0.167488 0.018800 -0.130398 0.078684 -0.612364 -0.071497 0.090334 -0.729011 0.326578 -0.065059 0.640169 0.019276 -0.750213 -0.278177 0.114188 0.121623 0.527945 -0.606877 -0.663962 0.632341 -0.247225 0.095431 0.117941 -0.199525 -0.001961 -0.244392 -0.644517 0.100770 0.378794 -0.719240 0.301460 0.334206 0.361009 -0.605750 -1.061036 0.138845 -0.401874 0.113587 -1.270327 0.500413 0.137961 0.251948 0.684720 -0.364272 0.063617 -0.118695 -0.359410 -0.231228 0.137835 -0.079822
1699 0.435007 0.687039 0.097403 -0.063138 -0.362909 -0.320946 -0.415112 -0.009235 0.489937 0.463120 0.470161 -0.082199 0.450635 -0.567532 -0.356638 0.072555 0.412607 -0.860865 0.174690 0.884571 0.176996 -0.588439 0.031879 -0.377802 1.154300 0.467245 -0.944139 0.582197 0.454799 -0.038862 0.797642 -0.086368 -1.098697 0.727653 -0.553086 -1.056344 0.504588 0.243742 0.438785 -0.050395 -0.384013 -0.344278 0.238553 0.449384 -0.563003 -0.403782 0.337183 -0.205127 0.325806 -0.383922
3813 0.130222 -0.048142 -0.034817 -0.310672 -0.291828 -0.729844 -0.208952 -1.147885 0.133875 0.337811 0.040156 -0.910829 -0.632212 -0.322275 -0.115607 0.130340 -0.352037 -0.992947 0.751354 -0.071167 0.374417 -0.206319 0.037883 0.278531 0.362178 -0.866657 -0.759676 0.452778 0.076082 -0.609898 -0.323513 0.348388 0.128800 -0.465433 -0.218671 -0.737036 -0.285915 0.344337 -0.197697 0.640125 0.155449 -0.632136 0.563479 0.002077 0.377729 -0.429549 -0.338162 -0.173970 -0.329531 0.341623
984 0.767986 0.736489 0.150088 -0.052212 -0.054740 -0.199906 -0.510156 -0.368211 0.248812 0.007028 0.530607 -0.087159 -0.112734 -0.184071 -0.099617 0.044610 0.338650 -0.828769 -0.260667 0.573081 0.147767 -0.714456 0.468228 -0.429898 0.629673 0.567194 -0.899678 0.298372 0.335574 0.237307 1.079190 -0.518310 -0.962387 1.167553 -0.452974 -1.086152 0.333480 -0.155189 0.612466 -0.283481 0.042116 -0.217842 0.895733 -0.026952 -0.437091 -0.752853 0.268155 -0.327319 -0.084452 -0.078145
3117 -0.337276 0.601081 -0.632361 0.026101 -0.812458 -0.932102 -0.445615 -0.194869 0.015002 -0.446039 0.698704 0.263810 -0.233073 -0.257822 0.034718 0.245848 -0.026528 -0.456686 0.705951 0.205197 -0.486026 -0.727997 -0.129816 -0.417185 0.487367 0.443607 -0.027264 0.216408 0.158659 0.482383 0.968630 -0.138796 -0.418487 0.333780 -0.269111 -0.476463 -0.172274 0.815532 0.115790 -0.046917 -0.221460 -0.228277 0.665033 -0.390404 0.167730 -0.446610 -0.301794 -0.346669 0.219689 0.252101
2465 0.153277 0.590600 -0.901698 0.540858 0.647035 -0.041777 -0.285150 -0.342645 0.184383 -0.251326 0.316959 -0.426893 -0.759942 -0.499809 0.225081 0.304587 0.581197 -0.037759 -0.339964 0.826246 -0.055367 -0.436117 -0.379063 0.036873 0.179139 -0.545350 -0.292256 0.696268 -0.332702 0.109488 0.234802 -0.851491 -0.544432 0.662835 -1.400104 0.410376 -0.055966 0.719539 -0.523711 -0.250360 0.464706 0.187801 0.310978 -0.013469 0.162559 0.389253 -0.135780 0.564034 -0.005673 0.578019
997 0.276934 0.867608 0.215303 0.039485 -0.195318 -0.434584 -0.546159 -0.429990 0.324199 0.161108 0.215396 0.349205 -0.224739 0.019128 -0.854579 0.086987 0.597481 -0.892735 -0.030350 0.492787 -0.309567 -0.796416 0.481604 -0.587233 0.961122 -0.096750 -0.847514 0.240771 0.067601 -0.003589 0.883168 -0.834558 -1.272457 0.891175 -0.561895 -0.775663 0.510422 -0.171843 0.607676 -0.288480 -0.059926 -0.154193 0.474406 0.096075 -0.434338 -0.743657 0.467261 -0.453812 0.355916 0.071008
4616 1.153833 0.139373 -0.084799 -0.444228 0.164530 -0.352720 0.166483 -0.336969 -0.552774 0.861321 0.176516 0.584416 -0.905429 -0.226666 0.350896 -0.117089 -0.010907 0.201153 -0.605350 0.437721 -0.677146 -0.150363 0.748354 0.019048 1.045418 0.092513 -0.347635 -0.259258 0.584854 0.236839 0.213954 -0.214793 0.019874 -0.015244 -0.802307 -0.460847 0.092989 0.284324 -0.001081 0.039750 -0.161415 0.043488 0.589485 -0.005436 0.808792 -0.076286 -0.334671 0.047794 -0.648879 0.198575
2077 0.131702 0.787470 0.116660 -0.098143 -0.261810 -0.392164 -0.382771 -0.290096 0.688955 0.146233 0.244921 0.146100 0.274402 -0.358863 -0.390832 -0.006304 0.613851 -0.870897 0.165482 1.124020 0.156950 -0.656732 0.441832 -0.490411 0.675832 0.418858 -0.872894 0.589947 0.500112 0.014218 1.073122 -0.499135 -1.125400 0.768223 -0.735600 -1.075256 0.440707 0.078882 0.646304 -0.155664 -0.224962 -0.424417 0.488569 0.523374 -0.288220 -0.773865 0.472385 -0.377748 0.124971 -0.397052
4735 -0.005614 0.441503 0.145956 0.065225 -0.041398 -0.279231 -0.055495 -0.148016 -0.785237 0.523571 0.539814 0.295642 -0.279809 -0.279158 -0.307036 0.725096 -0.207974 -0.389602 0.262084 1.031040 -0.488264 -0.589677 0.207249 0.835439 0.177550 -0.211063 0.058692 -0.135801 -0.305389 0.364482 1.188494 -0.201613 -0.397913 -0.302963 -0.752681 0.281658 -0.256982 1.131470 0.208899 -0.164325 -0.459007 0.262596 0.994395 -0.100699 0.921204 0.068342 -0.171528 0.315895 0.242333 -0.447621
4128 0.466786 -0.171120 -0.148537 -0.364279 -0.774174 0.375991 0.060988 -0.677417 1.209070 0.343017 0.705693 -0.543631 -0.406683 -0.381358 0.683813 0.626222 -0.041201 -0.132138 -0.381933 1.376551 -0.165140 -0.676836 0.949977 0.005885 0.484823 -0.249500 0.186429 0.905944 0.277883 -0.367508 0.435913 -0.970930 -1.047092 0.501801 0.067241 0.139474 -0.616517 0.629360 -0.200096 -0.939380 0.933880 0.879187 -0.359110 -0.106762 0.246943 0.072020 0.046936 -0.480475 0.128231 -0.760285
1312 0.240094 0.617256 0.069219 -0.014370 -0.242970 -0.221299 -0.537095 -0.202737 0.654741 0.242874 0.375986 0.180657 0.238812 -0.319681 -0.469680 0.002263 0.538282 -0.734078 0.159597 1.159732 0.127927 -0.634121 0.499970 -0.510485 0.767258 0.385307 -0.852078 0.434101 0.283807 0.109600 1.159763 -0.353629 -1.217340 0.831544 -0.799799 -1.170702 0.427191 -0.037986 0.454029 -0.191487 -0.328270 -0.542733 0.473346 0.531385 -0.335387 -0.640173 0.389391 -0.268235 0.325613 -0.200022
4784 0.407068 -0.249546 -0.182549 -0.465321 -0.148280 0.132461 0.052591 -0.170220 -0.161303 0.401718 0.519192 0.488401 -1.048581 -0.273161 0.133456 -0.428834 0.631076 0.258260 0.017038 -0.002261 -0.187735 -0.205550 -0.105687 -0.109886 0.932541 -0.041152 -0.177807 -0.181580 -0.463345 -0.090807 0.776198 -0.075877 -0.085072 -0.063623 -1.119895 -0.007826 -0.313984 0.468754 -0.106639 0.331100 0.320447 0.093793 0.415591 -0.648558 0.800558 -0.148023 -0.252032 0.316204 -0.729054 -0.193259
1266 -0.035875 0.681807 0.033618 -0.859682 -0.210568 -0.454429 0.412091 -0.091681 -0.085940 0.148139 0.714816 -0.881291 -0.397696 -1.164093 -0.519412 0.155445 -0.329772 -0.130510 0.044849 0.967559 0.506507 -1.082778 0.757502 -0.494702 1.135185 -0.139084 -0.618982 -0.355773 0.370855 0.844980 1.331899 0.398844 -0.819275 0.502299 -0.782840 0.153518 -0.613451 0.118246 -0.198126 0.402245 0.909414 -0.573013 0.461340 0.758991 -0.031227 0.806570 0.614811 0.257652 0.761698 -0.868489
2371 0.820561 -0.254841 -0.349478 1.205232 -0.581741 -0.104212 0.045886 -0.142439 0.610070 0.100863 0.604765 -0.451094 -0.338405 -0.855884 -0.006945 -0.467784 0.044614 -1.008587 0.042062 1.002623 -0.712003 -0.462616 0.936952 -0.825255 0.538189 0.002873 0.180322 0.053435 -0.568406 0.377744 0.854649 -0.253009 -0.193497 -0.524005 -0.430818 -0.105321 0.337674 0.479013 0.175536 -0.839230 0.366446 0.468592 0.770394 -0.236524 -0.174371 0.362233 0.328053 -0.256318 -0.115897 0.415947
3809 0.292554 0.675006 0.032019 -0.069133 -0.297641 -0.334634 -0.395304 -0.296208 0.540668 0.456658 0.321586 0.121640 0.337997 -0.305853 -0.345316 0.039223 0.500855 -0.784584 0.075185 1.093902 0.094069 -0.809448 0.372259 -0.456209 0.540326 0.380060 -0.922303 0.542181 0.421203 0.133538 1.007238 -0.521770 -1.172485 0.871517 -0.733430 -1.102430 0.294027 -0.172652 0.447733 -0.240270 -0.160907 -0.385982 0.704592 0.496416 -0.358058 -0.753724 0.369657 -0.218964 0.198149 -0.188445
4074 0.093222 -0.416929 0.003902 -0.148723 -0.815715 -0.639308 -0.188869 -0.312876 0.041345 0.719331 0.002699 0.578500 -0.153402 -0.295132 0.280531 0.667585 0.160791 -0.261018 -0.795853 0.076856 0.057515 0.559857 -0.142655 -0.328810 1.012888 -0.176951 -0.040484 -0.021150 0.095499 -1.055166 0.535178 -0.197829 0.015658 0.392625 -0.825890 0.458471 -0.167867 0.719500 0.286519 0.375535 0.530926 0.218887 1.441526 -0.790816 0.702825 -0.326118 -0.093888 0.043747 -0.017417 -0.290910
4216 -0.332690 -0.083705 -0.176473 -0.556779 0.360729 -0.551570 -0.174301 -0.704412 0.543453 0.057771 0.387471 0.220306 -0.484182 -0.682233 0.152852 0.543562 0.122502 -1.015599 0.033816 0.539335 0.085294 0.608643 0.328804 -0.765011 -0.054247 -0.476844 -0.549097 -0.355253 0.194469 -0.450202 0.572783 -0.173128 0.223386 -0.109695 -0.719033 -0.622712 -0.880691 -0.215951 0.273025 0.647812 -0.593686 0.312689 0.139885 0.335233 0.281058 -0.481973 -0.782729 0.044367 0.102716 0.050868
2975 0.221660 -0.087696 -0.197443 -0.489201 -0.755637 0.244762 -0.960238 0.127222 -0.618168 0.675774 0.567157 -0.441064 -0.832239 -0.290659 -0.143329 -0.034750 0.152811 -1.123234 -0.156180 0.274225 -0.107930 0.035964 0.287475 -0.096259 0.907730 -0.005577 -0.045151 0.242625 -0.009571 -0.655990 -0.009040 0.199104 0.108558 0.483622 0.025886 -0.228589 -0.671948 1.035984 -0.045112 0.735564 -0.301487 -0.321191 1.155729 0.057225 -0.016422 -0.188153 0.064237 -0.441870 0.596516 0.390190
4056 0.101726 -0.001933 -0.040596 -0.691343 -0.336029 -0.133282 -0.032756 -0.793356 0.066225 0.307268 -0.270881 -0.526012 -0.755050 -0.379072 0.108100 -0.758725 -0.265348 -0.652414 -0.264040 0.550048 -0.520484 -0.028575 0.355002 -0.380599 0.142219 -0.242562 -0.756746 -0.301328 0.597137 -0.335363 1.031785 -0.094160 -0.461884 -0.320446 0.022567 -0.093367 -0.582419 0.551548 0.560483 -0.559283 -0.120896 0.820303 0.271663 -0.034461 0.018887 0.499361 -0.610112 0.088326 0.456344 0.152418
3669 0.434516 0.578942 0.337337 0.060407 -0.465971 -0.327594 -0.211889 -0.226609 1.108185 0.329498 0.244658 -0.483778 -0.079555 -0.088843 0.031213 0.797169 0.314458 -0.487410 0.219149 0.736201 0.230802 0.098966 -0.210525 -0.357314 0.355754 -0.124705 0.235764 0.153814 0.658022 0.286898 0.417079 -0.645271 0.049904 0.350551 0.266794 -1.145001 0.105241 1.280696 0.488400 0.096594 1.129620 -1.043142 0.421910 -0.306406 0.849715 0.146048 -1.029825 0.055673 -0.137569 0.091120
1842 1.016054 0.245560 -0.505483 -0.461593 -0.406199 -0.336222 -0.585653 -0.075305 -0.128354 0.325353 0.194863 -0.402922 0.266541 -0.953007 0.119305 -0.149129 0.391018 -0.899736 1.037050 -0.199326 -0.190205 -0.017862 -0.258804 0.007576 0.957927 0.467487 -0.019344 0.334578 0.542356 -0.302342 0.841699 -0.057575 -0.245934 0.524457 -0.589299 -0.550944 0.022058 0.812280 0.308216 -0.020330 -0.319216 0.256967 -0.150802 0.686178 -0.153060 0.483771 -0.195054 -0.767565 0.055436 -0.029320
2257 -0.010447 0.547658 -0.156919 -0.366587 -0.276951 -0.173117 0.039338 -0.712783 -0.007661 -0.095669 -0.196982 -0.539074 -0.877255 0.100182 -0.088216 -0.807506 -0.158936 -0.450437 -0.541726 0.467459 -0.153037 -0.022187 0.162725 -0.456390 -0.164005 -0.540115 -0.636171 -0.381011 0.574239 0.132862 0.869415 -0.170941 -0.266413 0.138882 -0.615917 -0.159661 -0.327230 0.232431 0.493260 -0.457677 -0.070444 0.686166 0.805820 0.167645 0.145691 0.460686 -1.017675 0.126879 0.648517 0.237115
4609 1.308510 1.220790 0.208770 0.035000 -0.065811 -0.448481 -0.183063 -1.062806 0.088239 0.269790 0.031955 -0.411679 -0.338558 0.049623 -0.457779 0.599491 0.006450 -0.129967 0.206823 0.593042 1.141575 -0.216705 0.187549 -0.923563 0.745216 -0.588135 0.873439 0.478169 0.248561 -0.335460 0.500847 0.428489 0.072434 -0.120890 -0.096302 -0.923335 -0.139925 0.579331 0.206320 -0.366587 -0.083691 -0.438951 0.749357 -0.467211 0.457753 0.635163 -0.196676 0.169290 0.133729 -0.015309
3272 0.573791 0.769702 -0.806687 -0.970273 0.378827 0.439803 0.460512 -0.737295 0.051624 0.752251 1.259794 -0.772246 -0.025780 0.272565 0.364167 -0.786918 0.202108 -0.813300 0.414547 1.137404 0.470202 -0.542316 0.404110 -0.554259 0.786193 -0.471683 0.908244 0.296266 -0.496991 -0.235123 0.295923 -0.147886 -0.459452 0.144165 -1.096992 -0.671511 0.204348 0.188010 0.245182 -0.069902 -0.257236 -0.177039 1.130258 -0.257941 0.978198 -0.013968 0.172591 -0.376291 0.316366 0.367252
254 0.726634 0.124465 0.109334 -0.763097 -0.182501 -0.288446 0.531254 0.207177 -0.193090 0.530603 1.122846 -0.079715 -0.673282 -0.747476 0.386649 -0.036833 0.140460 0.672997 -0.544909 0.200621 0.333221 -0.765631 0.506196 -0.487566 0.410868 -0.695447 -1.035758 0.435594 0.212032 -0.279828 1.348221 -0.199795 -0.291572 0.153577 -0.686543 -0.664638 0.320309 -0.170593 0.079444 -0.297286 -0.286985 -0.371227 0.098036 -0.292083 -0.005186 0.468008 0.290038 -0.347789 0.114492 -0.151742
1573 0.176006 1.089763 0.031218 -0.160112 -0.077669 -0.170004 -0.247604 -0.051350 0.247318 -0.020192 0.150843 -0.540034 -0.154932 -0.706433 -0.075866 -0.186269 0.037446 -0.140039 -0.407770 0.032242 -0.317657 0.016436 0.525371 0.395091 1.108161 -0.072268 -0.117818 -0.390682 0.301877 0.595590 0.800930 -1.291737 -0.381503 -0.471634 -0.806885 -0.176782 -0.271926 0.989622 -0.521580 -0.270083 0.391434 0.583070 0.014737 -0.134300 0.431605 -0.252789 0.139995 -0.074079 0.241767 0.076172
1996 0.076731 -0.183539 -0.198913 -0.322300 -0.062371 0.146284 0.201780 -0.857680 -0.268895 0.412532 0.327103 -0.540743 -0.254025 -0.250524 0.103654 -0.419775 0.021762 -0.188840 -0.559183 0.328460 -0.167849 -0.249332 0.829605 0.018403 0.628123 -0.115818 -1.042391 -0.168599 0.796992 -0.591280 0.051438 -0.331147 -0.483125 -0.612924 -0.187253 -0.366514 -1.034134 0.539282 0.438071 -0.715750 -0.233496 0.270253 -0.165287 -0.090793 0.281777 0.034924 -0.586343 0.047630 0.161242 0.170867
4240 0.394941 0.426876 -0.028876 -0.689459 -0.217959 -0.290165 -0.275149 -0.893416 0.291351 -0.042844 0.789305 0.161099 0.579899 -0.133128 -0.664514 0.879009 -0.020149 -1.296377 -0.250026 0.401368 0.007485 0.746158 0.319081 -0.993374 -0.045978 -0.766269 -0.608791 0.146298 0.223679 -0.332986 1.185197 -0.747776 -0.226473 0.678025 -0.012554 0.228459 0.691272 0.310156 0.562266 0.581371 -0.309175 -0.182260 1.021277 0.528748 -0.145686 -0.349000 -0.388976 0.557248 0.334532 0.184569
2284 0.704562 0.719121 -0.656163 -0.230733 -0.339580 0.155734 -1.269047 0.175627 -0.229666 0.605402 0.944065 -0.395968 -1.014563 -0.395323 -0.338506 0.399536 -0.132072 -0.588032 0.030431 0.155341 0.467220 -0.066269 0.104891 -0.160269 0.907706 -0.367264 -0.502861 0.070141 -0.331901 -0.096728 0.366011 0.305864 -0.543710 0.255047 0.752365 -0.431943 -0.786024 0.211330 -0.257154 0.445870 -0.027748 -0.263263 0.713664 0.136498 -0.216561 0.461604 0.054684 -0.919349 0.158638 0.159503
2901 -0.434183 0.235412 -0.505246 0.228351 0.270591 -0.504677 -0.224681 -0.654117 -0.423390 -0.386566 0.422831 -0.227341 -1.434944 -0.682815 0.033382 0.395263 0.512063 -0.390206 0.203058 0.837448 0.088713 -0.141777 0.214043 -0.626635 -0.003120 -0.749642 -0.492980 -0.078459 -0.268081 -0.261245 0.023712 -0.417395 0.041806 0.110678 -1.199718 0.708862 -0.077553 1.048670 -0.798743 -0.218139 0.406760 0.139429 0.033346 0.165143 0.472183 0.273017 -0.033281 0.788628 0.579865 -0.071550
1757 -0.271276 0.223416 -0.544590 -0.352247 -0.107935 -0.543269 -0.495664 -0.275456 -0.164834 0.700932 0.506866 -0.217611 -0.390822 0.301330 -0.627883 0.316280 0.656677 -0.567679 0.041305 0.223597 0.490214 0.774583 0.567878 -0.602728 0.588157 -0.277783 -0.792116 -0.305978 -0.493319 -0.572738 0.369927 -0.562609 0.110548 -0.114136 -0.452962 0.398923 -1.611926 0.132296 0.589965 0.327772 -0.383258 0.114638 0.995805 0.030727 0.572847 -0.214267 -0.140653 -0.589006 -0.239458 0.076635
4098 0.680975 0.896381 -1.100817 -0.617379 0.106189 -0.283425 0.401296 -0.028244 0.302031 0.175539 0.611137 -0.016145 -0.532944 -0.087787 -0.571471 -0.649015 0.127993 -0.036072 0.222402 0.403168 -0.441393 -0.300836 0.184532 -0.672007 0.675108 -0.193280 0.680069 0.349497 -0.481164 -0.150407 0.799672 0.026486 -0.466516 -0.246686 -1.092536 -0.338002 0.072848 0.560329 -0.078233 0.489660 0.616423 0.189879 0.521191 -0.296378 0.144078 -0.042446 0.381486 0.197864 -0.343726 0.373917
4508 0.139698 -0.096942 -0.276084 0.303098 -0.451805 -0.431946 -0.200493 -0.226570 0.027002 0.544678 0.762431 0.520141 -0.664681 -0.217698 -0.009864 -0.095524 0.719275 -0.149336 0.071687 0.419180 -0.512525 -0.055633 0.064704 -0.084814 0.795162 0.038988 -0.007145 -0.196355 -0.113608 -0.584869 1.090459 0.358107 0.045640 -0.247325 -1.079980 0.409890 -0.640797 0.628166 -0.336929 0.738136 0.271780 0.286393 0.469293 -0.604493 0.547240 -0.421883 -0.258328 -0.044647 -0.853569 -0.588291
3484 -0.093414 0.302103 -0.257644 -0.451898 -0.327967 -0.302170 0.421866 -0.911270 0.265326 -0.200877 0.241127 -0.497804 -0.806361 0.083121 0.053803 -0.490198 -0.353279 -0.563508 -0.491382 0.438646 -0.525626 0.254916 0.011105 -0.706082 0.045332 -0.435742 -0.624272 -0.322935 0.508724 -0.144213 1.012749 -0.206634 -0.296427 0.026277 -0.125226 0.053091 -0.155545 0.337980 0.382985 -0.059844 -0.392353 0.546492 0.575472 0.141713 0.597648 0.076617 -0.736476 0.280312 0.929026 0.203596
4622 0.539365 0.536117 -1.097600 0.057004 0.459910 -0.420428 -0.197303 -0.018893 -0.035642 -0.094880 0.799516 -0.304200 -0.933213 -0.097955 -0.269616 -0.198818 0.595599 0.236411 -0.424217 0.955227 -0.192805 -0.357474 0.166577 0.260256 0.419340 -0.542890 0.201408 0.332350 -0.515247 -0.148679 0.316149 -0.429551 -0.742642 0.406427 -0.985090 -0.104215 0.465368 0.747870 -0.575669 -0.001564 0.643347 0.394144 0.517619 0.083450 -0.123109 0.276145 -0.099497 0.331992 -0.047180 0.478978
3109 0.833617 0.467862 -0.918857 0.173778 -0.995811 -0.236993 0.045013 -1.113299 -0.148285 -0.201061 0.619628 0.141467 0.321918 -0.716311 -1.021844 1.110944 0.760621 -0.753665 0.007775 0.337035 -0.356540 1.153381 0.300495 -0.313888 0.231449 -0.133983 -1.266689 0.550069 0.632390 -0.069672 0.399356 0.041789 -0.504323 0.955319 -0.792432 0.108331 0.374315 0.412580 -0.340882 -0.047620 0.276616 -0.204814 0.766414 0.262834 -0.598412 0.447033 -0.567016 -0.427414 0.005833 0.146844
844 1.310129 1.106118 -0.684405 -0.180840 0.346755 -0.161500 -0.254248 -0.358301 -0.006303 -0.174976 0.381476 -0.790858 -0.568667 -0.117768 -0.253391 -0.274744 0.297474 -0.529295 -0.069406 -0.306565 -0.027615 0.115975 0.017696 -0.575311 0.917425 0.188578 0.354717 1.272794 -0.153253 -0.568687 1.072583 0.014701 -0.131442 0.218302 0.126049 -0.087554 -0.341863 0.474878 -0.004586 -0.267646 1.216462 -0.460841 0.314899 0.614420 0.312666 -0.786232 -0.589488 0.123123 0.444301 -0.319697
5088 0.188224 0.026522 -0.047711 -0.275888 0.150802 -0.135120 -0.213778 -0.598512 -0.292973 0.419694 0.698657 -0.736008 -0.060191 -0.828094 0.316466 -0.066235 0.135180 -0.292909 -0.541778 0.393202 -0.067579 -0.094481 0.670741 0.290681 0.410217 -0.328230 -0.729772 0.038817 0.305120 0.107791 0.641429 -0.810550 -0.711636 -0.529804 0.008394 -0.282907 -0.780284 1.168762 0.401192 -0.726974 0.367970 0.247927 -0.536261 -0.471541 -0.018311 0.208983 -0.161226 -0.068703 -0.123107 0.174936
4331 0.266966 0.031962 0.321169 -0.196338 -0.143448 -0.396162 -0.227120 -0.171570 -1.008731 0.426573 0.223403 0.571350 -0.614716 -0.183196 -0.720405 0.805796 -0.294731 0.377093 0.253025 1.509519 0.220740 -0.801593 0.735509 0.586653 0.128852 -0.140537 -0.226972 -0.009879 0.208956 0.161722 1.064917 0.161011 -0.396099 0.270251 -0.805516 -0.060113 -0.337861 1.020037 -0.175616 -0.144065 -0.119853 0.269042 1.459612 0.087397 1.295668 0.107222 -0.222584 0.533192 0.054699 -0.038724
1712 -0.103224 0.328277 0.222917 -0.462689 -0.121992 -0.546708 -0.986494 -0.400175 -0.400550 0.411291 0.091479 0.125833 -1.066654 -0.173193 -0.131707 -0.001224 0.484008 -0.105000 -0.481055 1.003009 0.078547 0.278792 0.465407 -1.193940 0.188764 0.079557 -0.815888 0.446434 -0.238962 -0.151970 0.096151 -0.215945 1.037677 -0.218023 -0.475897 0.196789 -0.431243 0.756365 0.042481 0.274423 0.606972 -0.129728 0.399078 0.573077 1.099806 0.086166 0.494359 0.317227 0.241360 0.475634
3350 1.360331 1.020763 0.718586 -0.246858 -0.457040 0.200557 -0.584402 -0.350426 0.289155 -0.753679 -0.172326 -0.544444 -0.311201 -0.577832 -0.144432 0.124404 0.306896 0.160833 0.432857 0.245111 0.572903 -0.063868 -0.167769 -0.857336 0.494830 -1.030102 -0.092686 0.441834 0.568439 -0.417619 0.252401 0.060108 -0.080942 0.260443 -0.436064 -0.193140 -0.982966 0.813504 -0.177881 0.444280 0.568824 -0.115666 -0.031246 0.587562 0.650417 -0.285298 -0.714461 0.080482 -0.212799 0.109233
1187 -0.198986 -0.149040 0.120356 -0.200664 -0.575170 -0.242766 -0.759787 -0.063924 -0.605609 0.116601 0.362523 -0.266407 -1.073515 -0.548669 0.256834 0.104225 0.746868 -0.519848 -0.121866 0.669669 -0.126802 0.381540 0.539512 -1.266510 0.739192 -0.036906 -0.658149 0.278700 -0.130684 -0.017338 0.088865 -0.233278 0.336685 0.315293 -0.068080 -0.030260 -0.057123 0.804491 0.370857 0.569423 0.081628 0.100559 0.626590 0.116664 0.967742 -0.129184 0.310011 0.420022 0.629597 0.704634
5217 1.179642 0.471959 -0.059236 -0.214303 -0.383813 -0.388083 0.555244 0.026842 0.560612 0.248914 0.679283 0.137371 -1.145343 -0.419543 0.533201 -0.390485 0.490925 0.028076 0.160036 0.495660 0.040434 -0.067811 0.391866 -0.043688 0.435246 -0.363474 -0.304431 -0.141830 -0.219691 0.217518 0.554889 -0.794347 -0.104308 -0.308079 -0.437176 0.214091 -0.044004 0.809440 -0.090443 -1.112441 0.427303 0.773402 0.743971 -0.063466 -0.405882 0.134646 -0.327606 0.377697 -0.038559 0.219081
3341 0.825487 -0.029116 -0.946200 0.002131 -0.471928 0.303087 -0.395867 -0.552882 -0.284443 0.231152 0.474619 -0.625329 -0.025529 -0.802754 0.254241 -0.038937 -0.095712 -1.165765 0.530809 -0.590416 0.272404 -0.547958 0.353550 0.059001 0.611698 -0.334664 -0.193164 -0.208240 0.055130 -0.476487 0.497460 -0.056617 -0.170828 0.486606 -0.352284 -0.720061 -0.514275 0.715592 -0.194825 -0.346971 0.088454 -0.149504 -0.040327 0.287917 -0.023993 0.412379 0.033657 -0.207207 0.023638 0.396654
636 0.905599 0.430053 -0.480777 0.120526 -0.636456 0.111110 -0.793377 0.004833 -0.284486 0.412720 1.279105 -0.165139 -0.254651 -0.760132 0.323064 -0.162486 -0.299406 -0.636103 0.033786 0.451856 0.009223 -0.716568 0.184702 0.034050 0.522775 -0.745130 -0.258452 -0.404448 -0.307383 0.038268 0.525785 0.149189 -0.406024 0.739955 0.268134 -0.392346 -0.625796 0.236353 -0.193229 -0.177827 -0.759926 -0.583761 0.241561 -0.075380 -0.105781 0.248337 -0.112179 -0.359339 -0.004273 0.280550
3338 0.496731 0.025089 0.179059 -0.533982 -0.529839 -0.534202 0.114422 -0.219776 -0.001066 0.293379 0.896297 -0.290051 -0.742738 -0.751407 0.590168 -0.110707 -0.324621 0.601517 -0.437407 0.110420 0.439777 -0.390134 0.596843 -0.297044 0.606025 -0.421525 -1.168156 0.726502 -0.528690 -0.547646 0.897143 -0.380072 -0.307869 -0.043125 -0.783344 0.125068 -0.112669 -0.918347 -0.248949 -0.376349 -0.628125 -0.460830 0.180163 -0.122819 0.679683 0.355177 -0.082316 -0.580138 -0.038584 0.131338
2892 0.343394 0.648274 -0.118025 -0.044365 -0.433743 -0.240078 -0.389240 -0.301875 0.704994 0.417452 0.342974 0.209725 0.249422 -0.151833 -0.460010 0.196639 0.435110 -0.538334 0.049804 1.007983 0.181518 -0.737841 0.164984 -0.535064 0.853257 0.445410 -1.079867 0.573399 0.227337 -0.115432 1.240520 -0.368426 -1.204746 0.786296 -0.675150 -1.227246 0.461399 -0.013388 0.393536 -0.280759 -0.286951 -0.545342 0.402117 0.496014 -0.378385 -0.761571 0.362895 -0.315513 0.097745 -0.271229
835 -0.616015 1.269466 -0.307193 -1.161824 -0.759278 -0.387725 -0.598502 0.346882 0.694836 0.908205 0.329525 -0.597365 -0.589075 -0.963198 -0.079567 0.225614 -0.368366 -1.966253 0.298069 2.189831 0.405352 -0.329628 0.457727 -0.207178 -0.135256 0.248013 0.169987 1.630624 0.580165 -1.706391 1.342957 0.448340 -1.342545 0.223364 -1.701175 0.715577 1.506134 0.916167 -1.127665 -0.251967 0.018183 0.616944 0.721000 0.485443 1.001157 1.344162 -0.311274 -1.617465 0.018761 -1.402859
266 0.518889 -0.333510 -0.579572 0.019454 -0.279576 -0.552527 -0.768662 -1.095603 1.155805 0.457999 0.530949 0.187293 -0.598252 -0.317562 0.593503 0.475956 0.818949 -0.040192 -0.305851 0.346100 0.398673 -0.140639 -0.024385 -0.166245 0.921740 -0.347626 -0.128430 0.093671 0.247265 -0.901337 0.565152 0.344689 0.430369 -0.143723 -0.472846 0.458460 -0.116348 -0.132506 0.001096 -0.136353 0.153273 0.204469 0.566988 -0.619947 0.203709 -0.735407 -0.158737 0.640188 -0.162776 -1.148029
3116 0.617116 0.553253 0.071298 -0.337911 -0.629159 -0.167810 0.111526 -0.023516 0.526481 0.530575 0.389306 -0.437696 -1.035553 0.613017 0.175024 0.009760 0.019471 -0.694671 -0.124852 0.489003 -0.101558 0.123139 -0.287291 -0.521681 0.077578 -1.064510 -0.578508 0.806010 0.183779 -0.276842 1.130915 0.235199 0.732968 -0.606648 -0.140361 -0.448190 0.260982 0.680924 0.495163 -0.690904 0.316009 -0.380534 0.109783 -0.487129 -0.267646 0.278437 -0.523879 0.089554 -0.015048 -0.003281
5010 0.281727 0.626015 -0.012642 -0.045923 -0.433874 -0.359743 -0.491346 -0.215845 0.628747 0.235350 0.472377 0.059965 0.419696 -0.369783 -0.376134 0.053927 0.606686 -0.716020 0.068231 1.021727 0.213173 -0.629208 0.347244 -0.520141 0.669126 0.502262 -0.998212 0.656863 0.350308 -0.093448 1.013700 -0.488801 -1.051488 0.759357 -0.659801 -1.128688 0.525007 0.073433 0.491896 -0.108886 -0.112941 -0.444208 0.412352 0.703246 -0.438239 -0.833293 0.323693 -0.436069 0.318085 -0.155878
4121 0.069767 0.401536 -0.851405 -0.567692 -0.459318 0.117536 -0.466249 -0.703037 1.208375 0.103801 1.016729 -0.960814 -0.394722 -0.213963 0.472843 0.694288 -0.288830 -0.209117 0.512939 1.365793 -0.275625 -0.551859 0.801001 -0.078486 0.151573 0.129032 -0.257697 1.099162 0.381062 -0.097465 0.346844 -0.930910 -1.483303 0.633738 -0.280939 0.730984 -0.481005 0.778647 -0.254146 -0.634067 1.077263 0.816054 0.111033 0.221992 0.107589 0.083031 0.237550 -1.367825 0.533622 -0.434934
1789 0.104417 -0.344072 -0.518097 -0.027510 -0.861233 0.076133 -0.692811 -1.185156 -0.232829 0.738348 0.574964 -1.077496 -0.841706 -0.133950 0.089126 -0.415968 -0.010046 -1.168251 0.569588 -0.581739 0.346812 -0.083388 0.322359 -0.076734 0.218464 -0.392462 -0.425331 0.221997 0.080462 -0.594766 0.125859 0.019615 -0.143758 0.121672 -0.097881 -0.415725 -0.379567 0.970516 -0.000926 0.517770 -0.027559 -0.237408 0.797359 0.254687 -0.026845 0.161696 0.038804 -0.144704 -0.000974 0.544031
1362 0.700622 -0.003917 0.340228 -0.168698 -1.010811 0.062762 0.210032 -0.019483 -0.362600 0.912080 1.244189 -0.039833 -1.000045 -0.636715 -0.159724 1.126684 -0.025534 0.682125 0.101893 0.981877 0.836433 -0.507043 0.138843 0.037693 0.342009 -0.032546 -0.407165 0.594188 0.659091 -0.781504 0.938160 0.008105 -0.217642 0.555259 -0.553743 0.290067 -0.120103 -0.120574 -0.265540 -0.229676 0.264577 0.141846 0.930860 -0.127646 0.420055 0.169576 0.328089 -0.037025 0.646731 0.388317
2385 1.063644 0.488954 -0.118201 0.286278 0.075405 0.299349 -0.357940 -0.168856 0.037228 -0.319377 0.779482 -0.056085 -0.229766 -0.338031 0.013145 0.153599 -0.149628 -0.549731 -0.272516 0.223243 -0.418647 -0.527422 0.634684 -0.165953 0.410918 0.207095 -0.525415 -0.030918 0.065485 -0.016267 0.677840 -0.309158 -0.428973 1.053712 0.074963 -1.039922 -0.224813 0.469867 0.601390 -0.387586 0.585176 0.364729 0.906246 -0.352220 -0.125531 -0.765283 -0.182783 0.115736 -0.120223 0.552370
4950 0.222187 0.777059 0.013281 -0.071435 -0.207853 -0.496852 -0.417702 -0.309108 0.559308 0.178761 0.300042 0.057303 0.373804 -0.346373 -0.577672 0.179244 0.507712 -0.586075 0.065149 1.139655 0.105472 -0.671360 0.285411 -0.465412 0.699059 0.463089 -0.974504 0.394367 0.304772 -0.041058 1.243620 -0.408789 -1.150217 0.795549 -0.699399 -1.115314 0.410551 -0.017909 0.599721 -0.146721 -0.081795 -0.550894 0.431150 0.602567 -0.354773 -0.529814 0.452432 -0.288795 0.255182 -0.164520
3037 -0.156126 0.592313 0.053824 -0.325694 -0.443654 -0.222019 -0.023899 -0.682411 -0.070641 0.117012 0.291613 -0.367560 -0.597536 -0.677325 0.220889 -0.212759 -0.595399 -0.215658 -0.362727 -0.000135 0.811001 -0.095643 0.603091 -0.520533 0.235484 0.208812 -1.116281 0.255148 0.082457 -0.786123 0.373161 -0.288811 -0.156090 -0.213816 -0.744178 0.262862 -0.646176 -0.747470 -0.486937 0.198325 -0.559211 0.240432 0.624648 -0.346438 0.792212 0.769535 -0.164424 0.186336 0.146750 0.131944
